svm_type c_svc
kernel_type linear
nr_class 2
total_sv 16052
rho 0.11210003719613848
label 1 -1
nr_sv 7662 8390
SV
1.0 1502:1.0 1820:1.0 5257:1.0 8694:1.0 9815:1.0 12134:1.0 12548:1.0 16798:1.0 
1.0 3526:1.0 12568:1.0 
1.0 2598:1.0 3531:1.0 3558:1.0 4375:1.0 6369:1.0 9301:1.0 17929:1.0 
1.0 1000:1.0 1394:1.0 2296:1.0 2451:1.0 10928:1.0 15437:1.0 15941:1.0 15947:1.0 16611:1.0 19521:1.0 
1.0 8375:1.0 
1.0 1000:1.0 2080:1.0 11300:1.0 11397:1.0 12590:1.0 15941:1.0 18226:1.0 
0.6328459709164658 4079:1.0 11623:1.0 13584:1.0 13599:1.0 19481:1.0 
0.42605219837892694 1769:1.0 4849:1.0 7885:1.0 12568:1.0 13217:1.0 14469:1.0 15593:1.0 19395:1.0 
1.0 3182:1.0 5296:1.0 6569:1.0 11662:1.0 13883:1.0 14940:1.0 21065:1.0 
1.0 6970:1.0 11277:1.0 12568:1.0 14867:1.0 15593:1.0 
1.0 12535:1.0 13753:1.0 16709:1.0 17277:1.0 19574:1.0 
0.2633378074079998 1000:1.0 2395:1.0 2745:1.0 3794:1.0 4801:1.0 6898:1.0 7292:1.0 8093:1.0 8546:1.0 11460:1.0 
1.0 2251:1.0 6702:1.0 13762:1.0 
0.19573848467029104 724:1.0 1510:1.0 2672:1.0 2672:1.0 2781:1.0 2781:1.0 10104:1.0 10596:1.0 11413:1.0 11765:1.0 13356:1.0 15941:1.0 16960:1.0 17591:1.0 20025:1.0 
1.0 3665:1.0 17716:1.0 
0.11495199081543145 770:1.0 2950:1.0 3558:1.0 3814:1.0 4552:1.0 7997:1.0 12402:1.0 13707:1.0 17991:1.0 18948:1.0 
0.10313199938678538 2874:1.0 2984:1.0 7476:1.0 10126:1.0 13203:1.0 15781:1.0 15894:1.0 18266:1.0 18513:1.0 20188:1.0 
1.0 3637:1.0 9101:1.0 13038:1.0 13435:1.0 
0.2573125331045269 11355:1.0 11975:1.0 15705:1.0 
0.15247471556887532 775:1.0 1831:1.0 2251:1.0 9597:1.0 16892:1.0 19619:1.0 20138:1.0 
1.0 2287:1.0 6721:1.0 8296:1.0 12396:1.0 13203:1.0 19307:1.0 
0.4140733124161844 5692:1.0 8515:1.0 13304:1.0 13354:1.0 16206:1.0 
1.0 19959:1.0 
1.0 2326:1.0 4265:1.0 12961:1.0 15430:1.0 16277:1.0 17245:1.0 19481:1.0 19533:1.0 
1.0 1480:1.0 11376:1.0 14469:1.0 17638:1.0 
1.0 45:1.0 125:1.0 3910:1.0 11745:1.0 14541:1.0 15446:1.0 18011:1.0 20526:1.0 
0.9710562225078609 235:1.0 2296:1.0 2420:1.0 4983:1.0 14541:1.0 16571:1.0 16650:1.0 18614:1.0 19846:1.0 
1.0 1053:1.0 2386:1.0 6595:1.0 11279:1.0 15006:1.0 
0.27152428679132795 412:1.0 2375:1.0 4039:1.0 5715:1.0 8245:1.0 8938:1.0 13033:1.0 13208:1.0 14267:1.0 
0.8977936860013505 2126:1.0 2287:1.0 3239:1.0 4621:1.0 6182:1.0 8093:1.0 12443:1.0 17755:1.0 20448:1.0 
0.9297645235666522 549:1.0 3558:1.0 6977:1.0 8344:1.0 15894:1.0 20439:1.0 
1.0 1710:1.0 4128:1.0 5000:1.0 13435:1.0 17667:1.0 
0.11304245995231285 968:1.0 3665:1.0 4160:1.0 17721:1.0 
1.0 6833:1.0 7153:1.0 10419:1.0 12403:1.0 
0.20203502828031694 5333:1.0 8513:1.0 15594:1.0 15859:1.0 16498:1.0 16571:1.0 17364:1.0 20354:1.0 
1.0 2479:1.0 7155:1.0 13589:1.0 14017:1.0 14469:1.0 15432:1.0 
1.0 10460:1.0 
1.0 9076:1.0 9585:1.0 9881:1.0 
1.0 4079:1.0 11623:1.0 13599:1.0 19481:1.0 
1.0 412:1.0 1510:1.0 12926:1.0 13203:1.0 
0.6237461517202753 2266:1.0 13036:1.0 14574:1.0 
1.0 3814:1.0 4775:1.0 8093:1.0 16709:1.0 
0.1772645479146906 2521:1.0 9076:1.0 16504:1.0 17100:1.0 
1.0 871:1.0 11279:1.0 17716:1.0 
1.0 570:1.0 2287:1.0 6611:1.0 8869:1.0 12568:1.0 12568:1.0 
0.5860302635266466 3558:1.0 7833:1.0 20475:1.0 
0.42905814225198646 177:1.0 442:1.0 451:1.0 17366:1.0 18851:1.0 18898:1.0 19493:1.0 
0.05255352094580888 766:1.0 2629:1.0 6609:1.0 7920:1.0 13736:1.0 16229:1.0 
0.9385812749853738 8344:1.0 12568:1.0 12568:1.0 
1.0 6721:1.0 10063:1.0 13435:1.0 17899:1.0 19947:1.0 
0.9958637179437583 3521:1.0 4316:1.0 5568:1.0 7666:1.0 8765:1.0 16006:1.0 16959:1.0 
1.0 600:1.0 19513:1.0 
1.0 34:1.0 570:1.0 5631:1.0 12063:1.0 13107:1.0 15066:1.0 17723:1.0 19356:1.0 
0.6221149560762831 11300:1.0 11639:1.0 15555:1.0 
0.5384120494348935 3373:1.0 5702:1.0 12548:1.0 12723:1.0 
1.0 6517:1.0 7911:1.0 15947:1.0 17577:1.0 
1.0 2126:1.0 4161:1.0 8093:1.0 8364:1.0 19395:1.0 
0.036565752386435633 3411:1.0 4375:1.0 4552:1.0 11770:1.0 15867:1.0 20693:1.0 
0.5488145817668767 4039:1.0 6653:1.0 20783:1.0 20979:1.0 
1.0 1537:1.0 17242:1.0 20106:1.0 
1.0 58:1.0 1414:1.0 2296:1.0 5786:1.0 6255:1.0 7195:1.0 11344:1.0 12155:1.0 13695:1.0 
0.5718151086957368 1269:1.0 8458:1.0 
0.10918159248942869 1414:1.0 5457:1.0 6721:1.0 7524:1.0 9323:1.0 13857:1.0 14447:1.0 15399:1.0 16956:1.0 20344:1.0 
0.09182938833590026 34:1.0 800:1.0 1082:1.0 3055:1.0 3609:1.0 7573:1.0 10644:1.0 11195:1.0 12349:1.0 15437:1.0 15546:1.0 16842:1.0 17263:1.0 18340:1.0 18856:1.0 
0.2907854761841244 1394:1.0 17271:1.0 17750:1.0 20227:1.0 
0.4615872207379517 1091:1.0 1318:1.0 2190:1.0 6278:1.0 9898:1.0 10331:1.0 11907:1.0 
1.0 3526:1.0 4506:1.0 9301:1.0 9301:1.0 12403:1.0 16135:1.0 18510:1.0 
1.0 3411:1.0 4764:1.0 5799:1.0 6623:1.0 12548:1.0 16126:1.0 16987:1.0 
1.0 7524:1.0 8917:1.0 10550:1.0 10702:1.0 12568:1.0 
0.6057917291263465 9127:1.0 10364:1.0 11737:1.0 
0.440491622842536 125:1.0 775:1.0 3316:1.0 9166:1.0 10261:1.0 11388:1.0 12548:1.0 12737:1.0 15781:1.0 17518:1.0 20792:1.0 
0.4632410915450261 40:1.0 302:1.0 1318:1.0 2043:1.0 2252:1.0 6190:1.0 7525:1.0 10796:1.0 13427:1.0 17662:1.0 19077:1.0 20067:1.0 
0.8194196966574037 570:1.0 570:1.0 1094:1.0 1251:1.0 4257:1.0 11388:1.0 11388:1.0 16798:1.0 19380:1.0 
0.9621988706901689 518:1.0 570:1.0 1510:1.0 
1.0 1102:1.0 5461:1.0 6517:1.0 11300:1.0 
1.0 5540:1.0 
0.06796900044459747 39:1.0 775:1.0 1269:1.0 1502:1.0 6249:1.0 11745:1.0 13273:1.0 14931:1.0 15941:1.0 18787:1.0 20536:1.0 
0.48173156496795705 2685:1.0 3061:1.0 5948:1.0 15638:1.0 17948:1.0 19380:1.0 
1.0 2020:1.0 8604:1.0 11388:1.0 14791:1.0 16963:1.0 
0.10709797301417473 8765:1.0 15038:1.0 17877:1.0 19717:1.0 
1.0 2745:1.0 3411:1.0 11720:1.0 15437:1.0 
1.0 5613:1.0 11812:1.0 12548:1.0 
0.2489566088136686 1986:1.0 4909:1.0 11049:1.0 14353:1.0 
1.0 2287:1.0 
1.0 428:1.0 15782:1.0 
0.11068897164713358 2453:1.0 3411:1.0 9587:1.0 13435:1.0 14469:1.0 16380:1.0 16504:1.0 17667:1.0 20829:1.0 
1.0 442:1.0 
1.0 2266:1.0 9166:1.0 10458:1.0 20536:1.0 
1.0 
1.0 2804:1.0 8145:1.0 9601:1.0 14469:1.0 15781:1.0 15941:1.0 19567:1.0 
1.0 18039:1.0 20338:1.0 20338:1.0 
0.3217374483164541 3200:1.0 15894:1.0 18624:1.0 
1.0 12375:1.0 18739:1.0 
1.0 
1.0 570:1.0 1121:1.0 3188:1.0 5795:1.0 
0.3501548464477359 68:1.0 360:1.0 2024:1.0 2252:1.0 2970:1.0 4610:1.0 5903:1.0 7904:1.0 8685:1.0 12568:1.0 
0.5603958410958145 1708:1.0 1927:1.0 2260:1.0 5549:1.0 11182:1.0 11300:1.0 16316:1.0 16680:1.0 19543:1.0 
1.0 220:1.0 6857:1.0 19385:1.0 
1.0 775:1.0 11483:1.0 15918:1.0 
0.5266563799648228 1650:1.0 6103:1.0 6431:1.0 6517:1.0 
1.0 4969:1.0 6721:1.0 12548:1.0 14049:1.0 15434:1.0 16752:1.0 18266:1.0 
1.0 3662:1.0 11691:1.0 12548:1.0 
0.6445645527553778 1161:1.0 2029:1.0 5266:1.0 11639:1.0 14973:1.0 15691:1.0 18812:1.0 
0.33942152490370225 3411:1.0 5715:1.0 9041:1.0 10283:1.0 11074:1.0 13203:1.0 
0.019370501262247947 2126:1.0 3411:1.0 3411:1.0 8833:1.0 10928:1.0 16709:1.0 20539:1.0 20539:1.0 
1.0 18690:1.0 19645:1.0 
0.729263913396036 1285:1.0 12824:1.0 
1.0 3005:1.0 3200:1.0 3411:1.0 3531:1.0 5790:1.0 15692:1.0 15763:1.0 20302:1.0 
1.0 1134:1.0 2745:1.0 3613:1.0 7155:1.0 13196:1.0 15594:1.0 
0.40082778639738986 34:1.0 2553:1.0 7524:1.0 11707:1.0 13588:1.0 16709:1.0 17667:1.0 18420:1.0 19959:1.0 20067:1.0 
1.0 2296:1.0 2447:1.0 8258:1.0 10642:1.0 14286:1.0 19390:1.0 19602:1.0 
1.0 11876:1.0 
0.5929188083387341 442:1.0 458:1.0 2266:1.0 9485:1.0 9601:1.0 10187:1.0 10559:1.0 10979:1.0 15546:1.0 
1.0 11182:1.0 
1.0 34:1.0 570:1.0 570:1.0 775:1.0 2148:1.0 3637:1.0 3714:1.0 4969:1.0 6893:1.0 8339:1.0 12403:1.0 13244:1.0 18901:1.0 19958:1.0 
0.6652424405408707 2281:1.0 8364:1.0 8830:1.0 9812:1.0 11555:1.0 11665:1.0 16705:1.0 20526:1.0 
1.0 3443:1.0 6233:1.0 8145:1.0 14469:1.0 15894:1.0 
1.0 125:1.0 3239:1.0 7941:1.0 16709:1.0 16709:1.0 20526:1.0 
0.35448302290589 3636:1.0 10796:1.0 13350:1.0 14535:1.0 15470:1.0 16709:1.0 
1.0 7782:1.0 
1.0 570:1.0 2266:1.0 4957:1.0 6893:1.0 10458:1.0 11376:1.0 19380:1.0 
0.5773254721069436 570:1.0 2266:1.0 10545:1.0 11745:1.0 12764:1.0 13199:1.0 17282:1.0 17931:1.0 
0.2441854341656483 642:1.0 1313:1.0 2031:1.0 2266:1.0 13720:1.0 17050:1.0 19276:1.0 20067:1.0 
0.8135563118188983 3910:1.0 11745:1.0 17060:1.0 
0.8613764758594742 1431:1.0 6255:1.0 11250:1.0 18157:1.0 19380:1.0 
1.0 3411:1.0 4775:1.0 14740:1.0 16709:1.0 17667:1.0 
1.0 2126:1.0 3411:1.0 6255:1.0 
1.0 1319:1.0 11510:1.0 
0.745735980358184 570:1.0 2553:1.0 4052:1.0 16749:1.0 
0.044048497949637916 37:1.0 37:1.0 2318:1.0 2698:1.0 3031:1.0 4356:1.0 5104:1.0 5702:1.0 11666:1.0 11833:1.0 12375:1.0 12611:1.0 16615:1.0 19959:1.0 20635:1.0 
1.0 8673:1.0 11239:1.0 
1.0 570:1.0 1378:1.0 5217:1.0 11388:1.0 12764:1.0 16010:1.0 19403:1.0 
0.7288205894236741 3051:1.0 7469:1.0 7524:1.0 8756:1.0 15941:1.0 18920:1.0 
0.6967014103475145 5481:1.0 10476:1.0 10677:1.0 16600:1.0 
1.0 633:1.0 3595:1.0 12548:1.0 16313:1.0 
0.25706986798610754 2553:1.0 3910:1.0 7524:1.0 11834:1.0 13196:1.0 15941:1.0 16227:1.0 
0.14353632146158352 11590:1.0 12128:1.0 13273:1.0 13420:1.0 
1.0 3733:1.0 7608:1.0 14541:1.0 15941:1.0 20526:1.0 
0.8198283876093699 2598:1.0 6517:1.0 8685:1.0 9240:1.0 10460:1.0 11182:1.0 11570:1.0 13203:1.0 13435:1.0 15781:1.0 18266:1.0 19233:1.0 20726:1.0 
0.8065365313184191 428:1.0 2020:1.0 3239:1.0 3239:1.0 9101:1.0 9203:1.0 12681:1.0 14791:1.0 20526:1.0 
1.0 3061:1.0 11531:1.0 12568:1.0 
0.47746687044059766 1000:1.0 1414:1.0 7080:1.0 8431:1.0 14391:1.0 14946:1.0 15216:1.0 15894:1.0 17819:1.0 20723:1.0 
1.0 775:1.0 1010:1.0 1580:1.0 3411:1.0 3531:1.0 5434:1.0 13291:1.0 14161:1.0 14549:1.0 19881:1.0 
1.0 1510:1.0 5513:1.0 13896:1.0 
0.35229017418846414 1188:1.0 12402:1.0 
1.0 9103:1.0 10839:1.0 10839:1.0 
1.0 9554:1.0 10928:1.0 
1.0 37:1.0 879:1.0 1275:1.0 2266:1.0 3607:1.0 8093:1.0 11517:1.0 11708:1.0 17297:1.0 19481:1.0 21055:1.0 
0.21798117473202147 2298:1.0 2421:1.0 2556:1.0 2756:1.0 2756:1.0 2794:1.0 3518:1.0 4354:1.0 6471:1.0 7058:1.0 11921:1.0 12132:1.0 13768:1.0 14330:1.0 17937:1.0 
0.9829182942273677 3558:1.0 6192:1.0 6255:1.0 10460:1.0 10627:1.0 10745:1.0 13203:1.0 16709:1.0 20151:1.0 
0.3338455008301455 8094:1.0 8427:1.0 12568:1.0 16712:1.0 
0.5024146914809443 1014:1.0 1892:1.0 2260:1.0 10039:1.0 15894:1.0 19447:1.0 
0.29995734592981804 1489:1.0 2126:1.0 3774:1.0 8820:1.0 10681:1.0 12764:1.0 15446:1.0 20942:1.0 
0.6829030807861206 2266:1.0 5304:1.0 10015:1.0 12120:1.0 13295:1.0 20559:1.0 
1.0 290:1.0 1091:1.0 1414:1.0 10138:1.0 13632:1.0 14469:1.0 19481:1.0 
1.0 
1.0 2019:1.0 7999:1.0 20304:1.0 20600:1.0 
0.9190709147247448 5943:1.0 11288:1.0 21029:1.0 
1.0 1165:1.0 11344:1.0 
1.0 125:1.0 7153:1.0 15894:1.0 
1.0 182:1.0 458:1.0 3744:1.0 6435:1.0 14743:1.0 
1.0 1820:1.0 2266:1.0 4969:1.0 6898:1.0 10460:1.0 12548:1.0 12568:1.0 13435:1.0 16709:1.0 16757:1.0 18795:1.0 20067:1.0 20067:1.0 20526:1.0 
1.0 570:1.0 1162:1.0 1502:1.0 7993:1.0 7993:1.0 12063:1.0 12063:1.0 12085:1.0 12109:1.0 13026:1.0 13244:1.0 13292:1.0 13420:1.0 14017:1.0 
0.9447041850191028 4932:1.0 5333:1.0 6623:1.0 11795:1.0 16006:1.0 16964:1.0 20189:1.0 20940:1.0 
1.0 192:1.0 12972:1.0 
0.94322183328184 12264:1.0 15432:1.0 
0.07611726836229285 2464:1.0 4917:1.0 10467:1.0 13534:1.0 
1.0 
1.0 372:1.0 2870:1.0 3603:1.0 3667:1.0 10627:1.0 13553:1.0 16504:1.0 
1.0 1000:1.0 
0.2347724729340661 3603:1.0 3662:1.0 8145:1.0 11612:1.0 19102:1.0 19333:1.0 
0.593912884619932 6759:1.0 11304:1.0 11392:1.0 
1.0 
0.031194439536150427 633:1.0 1960:1.0 3155:1.0 4506:1.0 9898:1.0 12036:1.0 14469:1.0 15432:1.0 15941:1.0 20526:1.0 20726:1.0 
0.7303328961024831 1537:1.0 2266:1.0 2386:1.0 3411:1.0 5563:1.0 5634:1.0 8145:1.0 8245:1.0 8991:1.0 19627:1.0 
1.0 1375:1.0 
1.0 3411:1.0 3667:1.0 6255:1.0 10545:1.0 11745:1.0 18575:1.0 
1.0 1510:1.0 3833:1.0 6873:1.0 19496:1.0 
1.0 1000:1.0 3878:1.0 6611:1.0 8344:1.0 11526:1.0 16963:1.0 17347:1.0 19241:1.0 
0.8958745768522344 428:1.0 7080:1.0 7524:1.0 14450:1.0 17678:1.0 19407:1.0 20636:1.0 20842:1.0 
1.0 3531:1.0 7885:1.0 
0.4032680281039291 3831:1.0 20557:1.0 
1.0 5343:1.0 6517:1.0 10523:1.0 15546:1.0 19385:1.0 
0.5460612053901577 596:1.0 16829:1.0 19217:1.0 20511:1.0 
0.2886230208631961 2118:1.0 3338:1.0 7543:1.0 12118:1.0 12160:1.0 13217:1.0 15894:1.0 
0.12877346110920587 335:1.0 2126:1.0 2421:1.0 4044:1.0 9318:1.0 10300:1.0 11745:1.0 12568:1.0 14694:1.0 14694:1.0 17446:1.0 17800:1.0 17805:1.0 19990:1.0 20845:1.0 
1.0 428:1.0 775:1.0 3629:1.0 7455:1.0 7524:1.0 15941:1.0 
1.0 7941:1.0 8707:1.0 12208:1.0 
1.0 125:1.0 1051:1.0 2274:1.0 2479:1.0 4969:1.0 12921:1.0 13199:1.0 14469:1.0 19188:1.0 20514:1.0 20842:1.0 
1.0 2287:1.0 15894:1.0 
0.6747602839578645 3122:1.0 3316:1.0 
1.0 
1.0 
1.0 570:1.0 3807:1.0 10531:1.0 11182:1.0 11397:1.0 16327:1.0 19574:1.0 
1.0 2414:1.0 7827:1.0 13622:1.0 
0.18506038101552266 1325:1.0 1502:1.0 3831:1.0 6514:1.0 7715:1.0 11101:1.0 11300:1.0 13618:1.0 15941:1.0 16493:1.0 16794:1.0 19407:1.0 20536:1.0 
0.5822134932356784 583:1.0 
1.0 4518:1.0 6743:1.0 20189:1.0 
1.0 570:1.0 2250:1.0 2447:1.0 2451:1.0 7024:1.0 10983:1.0 11182:1.0 12568:1.0 14253:1.0 14469:1.0 15796:1.0 17929:1.0 18577:1.0 19380:1.0 
1.0 407:1.0 6517:1.0 6893:1.0 10839:1.0 11239:1.0 15781:1.0 16892:1.0 18513:1.0 19380:1.0 21078:1.0 
1.0 13395:1.0 13435:1.0 15692:1.0 17667:1.0 
1.0 598:1.0 6519:1.0 6519:1.0 6831:1.0 10531:1.0 10545:1.0 12471:1.0 12872:1.0 14892:1.0 15590:1.0 20274:1.0 20438:1.0 
1.0 2699:1.0 10928:1.0 
1.0 1394:1.0 2585:1.0 13605:1.0 16503:1.0 19415:1.0 
1.0 3411:1.0 3411:1.0 7742:1.0 8166:1.0 10538:1.0 10681:1.0 13273:1.0 13420:1.0 13427:1.0 19357:1.0 
0.0307293931576771 7057:1.0 8851:1.0 12069:1.0 13906:1.0 15720:1.0 17790:1.0 19077:1.0 
1.0 192:1.0 570:1.0 1330:1.0 2260:1.0 8070:1.0 10627:1.0 12063:1.0 13435:1.0 15894:1.0 17667:1.0 20600:1.0 
0.41744647989890643 2081:1.0 8730:1.0 10178:1.0 10633:1.0 13203:1.0 15430:1.0 
1.0 4044:1.0 6408:1.0 7294:1.0 20335:1.0 
0.1508450542817142 5691:1.0 9881:1.0 16284:1.0 19395:1.0 21063:1.0 
1.0 12831:1.0 
1.0 1165:1.0 1279:1.0 1571:1.0 2266:1.0 3631:1.0 13217:1.0 14358:1.0 15099:1.0 16709:1.0 
1.0 2517:1.0 6431:1.0 11745:1.0 13593:1.0 15108:1.0 15593:1.0 17667:1.0 20536:1.0 
1.0 3055:1.0 4546:1.0 5702:1.0 7524:1.0 8370:1.0 14491:1.0 16388:1.0 20067:1.0 
1.0 3744:1.0 14469:1.0 
0.6750875139642927 1067:1.0 1102:1.0 1510:1.0 4503:1.0 6517:1.0 8040:1.0 10627:1.0 14469:1.0 14709:1.0 20917:1.0 
0.3826943334989176 800:1.0 2839:1.0 6624:1.0 7825:1.0 
0.8786538629043338 775:1.0 6945:1.0 10560:1.0 11063:1.0 11174:1.0 16709:1.0 19534:1.0 
1.0 37:1.0 4969:1.0 5928:1.0 8770:1.0 9142:1.0 9815:1.0 14469:1.0 15593:1.0 16967:1.0 20386:1.0 
1.0 13083:1.0 
0.08751219837078882 1750:1.0 2386:1.0 5559:1.0 5826:1.0 9051:1.0 11182:1.0 11340:1.0 12742:1.0 13047:1.0 15922:1.0 20007:1.0 
1.0 5749:1.0 7524:1.0 8886:1.0 11216:1.0 13435:1.0 13711:1.0 13933:1.0 17962:1.0 18536:1.0 20121:1.0 
0.38274582451104006 4375:1.0 4710:1.0 5903:1.0 10538:1.0 13217:1.0 16028:1.0 19357:1.0 19909:1.0 
0.35655245055043977 7682:1.0 8820:1.0 9601:1.0 20335:1.0 
0.2025621998961185 10458:1.0 14146:1.0 14358:1.0 17667:1.0 20536:1.0 
0.5423339321163022 1517:1.0 6528:1.0 9267:1.0 10100:1.0 
0.045641666811369073 3665:1.0 3665:1.0 4188:1.0 5240:1.0 10545:1.0 12568:1.0 16028:1.0 
1.0 1147:1.0 2521:1.0 11239:1.0 14574:1.0 
0.8096027306427552 821:1.0 19408:1.0 
1.0 442:1.0 4521:1.0 
1.0 1269:1.0 
1.0 570:1.0 2266:1.0 3558:1.0 3603:1.0 4801:1.0 13203:1.0 13759:1.0 14469:1.0 16709:1.0 18929:1.0 
0.4270237664492154 2328:1.0 3411:1.0 
0.3215078674314686 1938:1.0 2970:1.0 12544:1.0 13435:1.0 15038:1.0 15212:1.0 16840:1.0 16880:1.0 17124:1.0 
1.0 3411:1.0 15692:1.0 
1.0 1017:1.0 11721:1.0 19289:1.0 20268:1.0 
1.0 3922:1.0 8673:1.0 16690:1.0 16924:1.0 
1.0 1761:1.0 3919:1.0 6517:1.0 8145:1.0 10419:1.0 
1.0 2287:1.0 
0.030898758016830716 3831:1.0 12239:1.0 14997:1.0 17248:1.0 17675:1.0 17716:1.0 
0.33319569387000625 39:1.0 4882:1.0 6471:1.0 7898:1.0 8040:1.0 8093:1.0 9147:1.0 11747:1.0 13859:1.0 16731:1.0 18231:1.0 18516:1.0 19407:1.0 20067:1.0 
1.0 11300:1.0 20979:1.0 
1.0 
1.0 10458:1.0 
1.0 775:1.0 15446:1.0 15894:1.0 
1.0 2970:1.0 3531:1.0 14011:1.0 
1.0 4079:1.0 14469:1.0 16963:1.0 
0.3000817194714734 3411:1.0 6352:1.0 6519:1.0 13427:1.0 17092:1.0 19534:1.0 
1.0 2148:1.0 2260:1.0 3411:1.0 8568:1.0 10983:1.0 12548:1.0 12568:1.0 14268:1.0 18720:1.0 
0.27609947178430394 2563:1.0 3558:1.0 6779:1.0 12675:1.0 14897:1.0 16232:1.0 17991:1.0 
0.5664177257378326 2239:1.0 2260:1.0 3411:1.0 5277:1.0 8546:1.0 8679:1.0 14469:1.0 15538:1.0 19445:1.0 
1.0 
1.0 1000:1.0 8833:1.0 
1.0 570:1.0 1168:1.0 3031:1.0 6173:1.0 7051:1.0 11745:1.0 13203:1.0 16709:1.0 17006:1.0 17164:1.0 17667:1.0 17667:1.0 20526:1.0 
1.0 8070:1.0 16752:1.0 20526:1.0 
1.0 15742:1.0 20771:1.0 
0.2920652292332137 6517:1.0 12751:1.0 19811:1.0 20035:1.0 
0.037854328019211306 2722:1.0 6741:1.0 7860:1.0 18690:1.0 19934:1.0 
1.0 9:1.0 2447:1.0 3919:1.0 4108:1.0 15229:1.0 
0.35117880938991614 1060:1.0 1134:1.0 9601:1.0 11714:1.0 11734:1.0 20337:1.0 20642:1.0 
1.0 2126:1.0 8037:1.0 8335:1.0 11464:1.0 12568:1.0 13108:1.0 13970:1.0 19380:1.0 
1.0 15317:1.0 
0.724952789700198 8093:1.0 20237:1.0 
0.4176496311496478 33:1.0 3516:1.0 3907:1.0 4653:1.0 6246:1.0 14468:1.0 16361:1.0 16949:1.0 17962:1.0 19607:1.0 20774:1.0 
1.0 775:1.0 7882:1.0 
1.0 4108:1.0 6287:1.0 9301:1.0 9301:1.0 10928:1.0 19493:1.0 
1.0 125:1.0 20842:1.0 
0.7971794216359909 6316:1.0 9214:1.0 13796:1.0 20712:1.0 
1.0 3411:1.0 15692:1.0 16336:1.0 
0.6748394542104543 125:1.0 3740:1.0 11812:1.0 16709:1.0 16794:1.0 20979:1.0 
0.30720792135141295 2266:1.0 6770:1.0 11239:1.0 20545:1.0 
1.0 15437:1.0 18116:1.0 
0.08180767261318218 2722:1.0 13670:1.0 
1.0 1394:1.0 2019:1.0 3411:1.0 3744:1.0 5461:1.0 14469:1.0 16964:1.0 17408:1.0 17705:1.0 
1.0 13291:1.0 16327:1.0 
1.0 125:1.0 3411:1.0 7344:1.0 7524:1.0 15692:1.0 
1.0 59:1.0 4969:1.0 
0.10483458208397449 3411:1.0 4969:1.0 6763:1.0 10458:1.0 
1.0 8685:1.0 10739:1.0 12004:1.0 17021:1.0 
0.258628765415053 442:1.0 854:1.0 2827:1.0 6441:1.0 8685:1.0 
0.2746224290990541 2266:1.0 3662:1.0 4583:1.0 8707:1.0 9301:1.0 10928:1.0 13632:1.0 16143:1.0 17409:1.0 17680:1.0 20662:1.0 
1.0 2003:1.0 6233:1.0 15670:1.0 
0.42157593175824976 9:1.0 34:1.0 734:1.0 859:1.0 4375:1.0 8615:1.0 18907:1.0 20067:1.0 
0.633944129610966 6143:1.0 7784:1.0 9947:1.0 18312:1.0 
1.0 
0.14277202417615126 34:1.0 1128:1.0 1975:1.0 10605:1.0 11812:1.0 13199:1.0 16336:1.0 16709:1.0 19617:1.0 20439:1.0 
0.932290327133934 6871:1.0 15488:1.0 18690:1.0 
1.0 166:1.0 570:1.0 3187:1.0 6800:1.0 8807:1.0 14247:1.0 15894:1.0 16536:1.0 17006:1.0 17334:1.0 20536:1.0 
0.2807709875476963 34:1.0 36:1.0 2022:1.0 2435:1.0 2553:1.0 3061:1.0 3061:1.0 3248:1.0 5374:1.0 9256:1.0 11053:1.0 13320:1.0 15593:1.0 17377:1.0 18937:1.0 
1.0 3667:1.0 10460:1.0 12548:1.0 17199:1.0 
0.677385370793551 6517:1.0 12548:1.0 14447:1.0 18664:1.0 
0.3602831235795021 102:1.0 2970:1.0 5455:1.0 5634:1.0 6578:1.0 10458:1.0 14469:1.0 14867:1.0 18851:1.0 20908:1.0 
1.0 2970:1.0 3794:1.0 11708:1.0 11727:1.0 12548:1.0 14176:1.0 18901:1.0 
1.0 7524:1.0 16529:1.0 17700:1.0 
1.0 6859:1.0 20106:1.0 
1.0 583:1.0 4079:1.0 11074:1.0 
1.0 
0.8820217198467147 5097:1.0 5710:1.0 6756:1.0 13291:1.0 15003:1.0 15960:1.0 17370:1.0 17370:1.0 17994:1.0 19161:1.0 19534:1.0 20920:1.0 
0.7912118088419727 2883:1.0 3607:1.0 6517:1.0 13454:1.0 14469:1.0 16953:1.0 17518:1.0 19792:1.0 20526:1.0 21055:1.0 
0.3545554790215316 2965:1.0 3239:1.0 4018:1.0 4259:1.0 5897:1.0 6027:1.0 6877:1.0 7901:1.0 11009:1.0 13291:1.0 16953:1.0 17741:1.0 20335:1.0 
1.0 7431:1.0 19493:1.0 19784:1.0 20942:1.0 
1.0 3831:1.0 4969:1.0 
1.0 180:1.0 2695:1.0 3573:1.0 4969:1.0 7219:1.0 7915:1.0 13707:1.0 19493:1.0 
0.15670669284260208 1000:1.0 6517:1.0 9220:1.0 12109:1.0 12109:1.0 15781:1.0 20561:1.0 
0.4491693701195238 5476:1.0 9963:1.0 10545:1.0 13524:1.0 
1.0 11325:1.0 20463:1.0 
0.20230521993559847 3814:1.0 6277:1.0 10246:1.0 13395:1.0 13435:1.0 20526:1.0 
0.32810437584688357 879:1.0 879:1.0 4806:1.0 17359:1.0 
1.0 15947:1.0 19344:1.0 20979:1.0 
0.42891322023916495 941:1.0 2142:1.0 3526:1.0 10460:1.0 16667:1.0 
1.0 3831:1.0 
1.0 1502:1.0 6627:1.0 9062:1.0 14469:1.0 
1.0 3411:1.0 15692:1.0 
1.0 6471:1.0 13273:1.0 13420:1.0 19217:1.0 20682:1.0 
1.0 34:1.0 182:1.0 570:1.0 570:1.0 
1.0 442:1.0 1510:1.0 4583:1.0 18818:1.0 
1.0 1314:1.0 2970:1.0 10928:1.0 12403:1.0 19161:1.0 
0.003718684597557344 5875:1.0 11099:1.0 11279:1.0 15894:1.0 18472:1.0 
1.0 2043:1.0 8145:1.0 10928:1.0 
0.3746671870479202 1598:1.0 2478:1.0 3239:1.0 5013:1.0 13133:1.0 14573:1.0 17261:1.0 17861:1.0 18068:1.0 
1.0 1414:1.0 3315:1.0 7882:1.0 8906:1.0 13199:1.0 14041:1.0 14957:1.0 
1.0 125:1.0 412:1.0 502:1.0 1000:1.0 2598:1.0 2598:1.0 4467:1.0 6479:1.0 11344:1.0 13199:1.0 16504:1.0 20723:1.0 
1.0 784:1.0 2020:1.0 4708:1.0 6611:1.0 7153:1.0 11745:1.0 13435:1.0 14791:1.0 19395:1.0 
0.3170335774195243 633:1.0 8296:1.0 12548:1.0 12944:1.0 17062:1.0 19380:1.0 
1.0 7885:1.0 9857:1.0 
1.0 570:1.0 1510:1.0 7079:1.0 
1.0 66:1.0 2126:1.0 2126:1.0 3411:1.0 3411:1.0 6519:1.0 9169:1.0 11483:1.0 12548:1.0 13291:1.0 
1.0 2266:1.0 11737:1.0 
1.0 471:1.0 570:1.0 3411:1.0 15941:1.0 
1.0 8204:1.0 12548:1.0 19662:1.0 
0.9160346106002658 2792:1.0 12776:1.0 19395:1.0 
1.0 13291:1.0 15894:1.0 17347:1.0 17700:1.0 
0.1150242399424971 3411:1.0 3411:1.0 7085:1.0 7543:1.0 8425:1.0 10839:1.0 10928:1.0 12548:1.0 20600:1.0 
1.0 570:1.0 1510:1.0 3285:1.0 8527:1.0 11445:1.0 12315:1.0 
0.9735109422595495 1000:1.0 2131:1.0 3830:1.0 4416:1.0 4518:1.0 13132:1.0 20526:1.0 
1.0 36:1.0 66:1.0 6255:1.0 11376:1.0 13199:1.0 
1.0 
1.0 40:1.0 1165:1.0 2860:1.0 3572:1.0 12403:1.0 
0.4216128165597257 6240:1.0 10897:1.0 10934:1.0 11300:1.0 12565:1.0 13217:1.0 18783:1.0 20067:1.0 20320:1.0 
1.0 3411:1.0 13203:1.0 13291:1.0 14353:1.0 17667:1.0 
1.0 11763:1.0 12109:1.0 20106:1.0 20439:1.0 
1.0 
1.0 412:1.0 13816:1.0 15038:1.0 18931:1.0 
0.18079024442676928 37:1.0 1240:1.0 1247:1.0 1562:1.0 2250:1.0 3315:1.0 6145:1.0 7675:1.0 8527:1.0 9799:1.0 12568:1.0 19559:1.0 20610:1.0 
1.0 33:1.0 570:1.0 6571:1.0 14469:1.0 17075:1.0 
0.36549007209319617 371:1.0 10730:1.0 17723:1.0 
1.0 428:1.0 442:1.0 6517:1.0 
0.3447547276524225 245:1.0 775:1.0 1339:1.0 3411:1.0 8728:1.0 9101:1.0 10545:1.0 10633:1.0 11365:1.0 12234:1.0 14651:1.0 
1.0 125:1.0 2300:1.0 2532:1.0 2698:1.0 3744:1.0 4775:1.0 5215:1.0 8021:1.0 10458:1.0 11483:1.0 12568:1.0 12568:1.0 15593:1.0 17667:1.0 19233:1.0 19999:1.0 
0.9172122592277322 354:1.0 951:1.0 2126:1.0 8425:1.0 8697:1.0 16010:1.0 17277:1.0 18920:1.0 19726:1.0 
1.0 9166:1.0 14379:1.0 
1.0 
0.20868815320525466 36:1.0 197:1.0 655:1.0 1306:1.0 8449:1.0 9381:1.0 9565:1.0 10786:1.0 12568:1.0 12568:1.0 13318:1.0 20452:1.0 
0.47087324989751833 318:1.0 4253:1.0 4552:1.0 8236:1.0 13199:1.0 16885:1.0 19521:1.0 19692:1.0 20067:1.0 
1.0 10716:1.0 
1.0 3443:1.0 
1.0 335:1.0 2244:1.0 5254:1.0 5806:1.0 13217:1.0 
1.0 775:1.0 2745:1.0 3411:1.0 3859:1.0 4339:1.0 11288:1.0 12406:1.0 
0.23136854454396363 2343:1.0 20730:1.0 20730:1.0 
1.0 2838:1.0 4128:1.0 5296:1.0 9881:1.0 17818:1.0 
0.5692362613242519 1502:1.0 2266:1.0 5423:1.0 6873:1.0 10796:1.0 17330:1.0 17994:1.0 
0.8000685531145331 2266:1.0 2698:1.0 4757:1.0 12690:1.0 16504:1.0 17856:1.0 
1.0 570:1.0 3814:1.0 8070:1.0 8335:1.0 10458:1.0 13291:1.0 13435:1.0 14247:1.0 15941:1.0 17991:1.0 
0.20953116889216655 2623:1.0 2827:1.0 8546:1.0 8546:1.0 8546:1.0 9995:1.0 17053:1.0 17134:1.0 17865:1.0 
0.015810194807920848 2553:1.0 3558:1.0 3634:1.0 4552:1.0 4552:1.0 9558:1.0 10122:1.0 12857:1.0 14739:1.0 14739:1.0 14739:1.0 16606:1.0 17528:1.0 18046:1.0 
0.17750855597635382 9062:1.0 13670:1.0 13759:1.0 19409:1.0 
0.004704733198941396 633:1.0 3328:1.0 3831:1.0 7776:1.0 7911:1.0 14551:1.0 17899:1.0 
0.49590744946868504 633:1.0 3773:1.0 9601:1.0 10633:1.0 11660:1.0 12568:1.0 
0.950898868818861 859:1.0 9547:1.0 11138:1.0 19493:1.0 
0.10735365076601293 1134:1.0 2745:1.0 3236:1.0 4666:1.0 4728:1.0 5022:1.0 7524:1.0 9230:1.0 13139:1.0 14469:1.0 17486:1.0 
1.0 1000:1.0 2287:1.0 6611:1.0 15259:1.0 
1.0 442:1.0 7941:1.0 
0.05068478337987962 7467:1.0 8657:1.0 9318:1.0 11745:1.0 14656:1.0 
0.6339679347564511 2567:1.0 4689:1.0 14988:1.0 20842:1.0 
0.2049710505281949 1394:1.0 7287:1.0 8714:1.0 13953:1.0 14739:1.0 15941:1.0 16885:1.0 16885:1.0 
1.0 1769:1.0 2698:1.0 6103:1.0 17929:1.0 
0.8133312071420236 3521:1.0 8646:1.0 10805:1.0 14185:1.0 15715:1.0 20233:1.0 
1.0 1120:1.0 2745:1.0 2845:1.0 3526:1.0 6702:1.0 8145:1.0 
0.4761834826994934 12003:1.0 12568:1.0 
0.47873441434258757 719:1.0 3752:1.0 8344:1.0 13203:1.0 17651:1.0 19533:1.0 19990:1.0 20480:1.0 20854:1.0 
0.2197313989887193 1915:1.0 2019:1.0 3531:1.0 6478:1.0 8196:1.0 10910:1.0 14264:1.0 16205:1.0 20173:1.0 20642:1.0 
0.813592516760111 412:1.0 874:1.0 1098:1.0 3901:1.0 4806:1.0 6330:1.0 
0.3393224938511161 446:1.0 3167:1.0 3239:1.0 4566:1.0 8495:1.0 12548:1.0 13195:1.0 13199:1.0 19294:1.0 
0.08881079145154924 8017:1.0 8017:1.0 11534:1.0 12126:1.0 12126:1.0 17773:1.0 17773:1.0 18259:1.0 18259:1.0 
1.0 2481:1.0 3744:1.0 5439:1.0 6893:1.0 7347:1.0 7760:1.0 10793:1.0 11745:1.0 14477:1.0 14755:1.0 15593:1.0 15727:1.0 16042:1.0 
0.1890489586874294 3698:1.0 4815:1.0 11325:1.0 13217:1.0 16313:1.0 
1.0 40:1.0 2266:1.0 3117:1.0 7885:1.0 9633:1.0 10540:1.0 16714:1.0 
0.1182105878813236 2713:1.0 15038:1.0 20726:1.0 
0.8558263122758528 42:1.0 570:1.0 15446:1.0 15860:1.0 
1.0 2598:1.0 11545:1.0 18690:1.0 18690:1.0 
0.0996761226381726 1051:1.0 6977:1.0 13291:1.0 18137:1.0 
0.4565019410199676 2269:1.0 2613:1.0 2771:1.0 5805:1.0 10476:1.0 13203:1.0 17994:1.0 18011:1.0 
1.0 800:1.0 2429:1.0 2695:1.0 7941:1.0 15763:1.0 16709:1.0 20600:1.0 20723:1.0 
0.7630046339847049 2285:1.0 15894:1.0 16361:1.0 18260:1.0 20726:1.0 
1.0 7085:1.0 
1.0 2019:1.0 11525:1.0 
1.0 1769:1.0 2745:1.0 11300:1.0 11978:1.0 20723:1.0 
1.0 465:1.0 5391:1.0 18550:1.0 20124:1.0 20345:1.0 
0.350004058393679 34:1.0 4068:1.0 4372:1.0 7020:1.0 8765:1.0 10063:1.0 10526:1.0 13856:1.0 16313:1.0 16369:1.0 16953:1.0 
1.0 2970:1.0 3411:1.0 6370:1.0 13199:1.0 17195:1.0 
0.14666929161012288 3359:1.0 6898:1.0 8245:1.0 17929:1.0 
0.617685444470638 4167:1.0 5807:1.0 8208:1.0 9906:1.0 10471:1.0 13618:1.0 
0.7374799533259623 582:1.0 1553:1.0 5715:1.0 13212:1.0 13883:1.0 14349:1.0 16807:1.0 20127:1.0 
0.39065880740166253 2858:1.0 3411:1.0 3439:1.0 20430:1.0 
1.0 
0.0055102180593942065 1049:1.0 1819:1.0 11239:1.0 19746:1.0 20189:1.0 
0.7702101118501751 2598:1.0 5022:1.0 6009:1.0 
0.1508884170038363 1000:1.0 2375:1.0 2970:1.0 3239:1.0 3248:1.0 12043:1.0 16147:1.0 17144:1.0 17994:1.0 
0.35024515176427484 2251:1.0 2930:1.0 6294:1.0 
0.4029489906139323 268:1.0 269:1.0 2126:1.0 3061:1.0 8883:1.0 15894:1.0 17929:1.0 
0.6495483447856575 34:1.0 125:1.0 283:1.0 800:1.0 2142:1.0 2437:1.0 3814:1.0 5380:1.0 5795:1.0 7524:1.0 9495:1.0 9570:1.0 20067:1.0 20600:1.0 
1.0 6722:1.0 12550:1.0 19952:1.0 
1.0 2085:1.0 3558:1.0 5333:1.0 8765:1.0 10283:1.0 10451:1.0 11978:1.0 13959:1.0 16571:1.0 19534:1.0 
0.30822630619345676 2970:1.0 6365:1.0 10545:1.0 17814:1.0 18929:1.0 19395:1.0 
0.3710344641431095 2399:1.0 6594:1.0 11182:1.0 13075:1.0 18192:1.0 19294:1.0 19380:1.0 20547:1.0 
1.0 2698:1.0 19395:1.0 
1.0 1324:1.0 2553:1.0 12568:1.0 19380:1.0 20602:1.0 20942:1.0 
0.39512010150717347 422:1.0 2666:1.0 3239:1.0 3826:1.0 13711:1.0 
0.28762311988374034 1510:1.0 2020:1.0 10215:1.0 11325:1.0 12310:1.0 12568:1.0 20302:1.0 
1.0 2447:1.0 3411:1.0 7079:1.0 8765:1.0 11121:1.0 14041:1.0 14469:1.0 
1.0 2320:1.0 3698:1.0 7059:1.0 11182:1.0 
1.0 3831:1.0 3831:1.0 
1.0 8765:1.0 10460:1.0 16856:1.0 
1.0 4108:1.0 5266:1.0 6591:1.0 20067:1.0 20106:1.0 20526:1.0 
1.0 14358:1.0 18856:1.0 21062:1.0 
0.22687363467085384 3667:1.0 3690:1.0 6594:1.0 7742:1.0 11182:1.0 12568:1.0 12568:1.0 13632:1.0 15941:1.0 16361:1.0 17518:1.0 20386:1.0 
0.595630538508179 1066:1.0 1510:1.0 3853:1.0 4553:1.0 6517:1.0 12208:1.0 12375:1.0 18415:1.0 19294:1.0 
1.0 37:1.0 1165:1.0 5795:1.0 7524:1.0 8245:1.0 11932:1.0 12107:1.0 12213:1.0 13435:1.0 15359:1.0 18266:1.0 
0.37640081489551475 6517:1.0 11397:1.0 14352:1.0 17680:1.0 19963:1.0 
1.0 
1.0 7056:1.0 8093:1.0 13883:1.0 
1.0 1767:1.0 2266:1.0 2970:1.0 6569:1.0 
1.0 3665:1.0 
1.0 2320:1.0 2892:1.0 8615:1.0 15781:1.0 16842:1.0 
1.0 10419:1.0 15894:1.0 
1.0 1414:1.0 1769:1.0 2598:1.0 2698:1.0 6849:1.0 12280:1.0 16798:1.0 
1.0 6246:1.0 8040:1.0 8833:1.0 14539:1.0 16709:1.0 
0.5251693618630976 961:1.0 16177:1.0 19493:1.0 20739:1.0 20986:1.0 
1.0 9:1.0 15067:1.0 
1.0 2745:1.0 5956:1.0 16709:1.0 19199:1.0 20189:1.0 
0.5217149845944138 45:1.0 552:1.0 10859:1.0 12338:1.0 12402:1.0 17909:1.0 
1.0 10225:1.0 10605:1.0 11182:1.0 13545:1.0 14226:1.0 15432:1.0 20439:1.0 
1.0 475:1.0 11327:1.0 
0.25494170011917805 4192:1.0 15446:1.0 20642:1.0 
0.4662518748640244 436:1.0 1256:1.0 1256:1.0 2118:1.0 5015:1.0 9853:1.0 17528:1.0 17528:1.0 17528:1.0 17528:1.0 20828:1.0 
0.7424592929200344 3420:1.0 8242:1.0 19479:1.0 19959:1.0 
1.0 125:1.0 1394:1.0 3064:1.0 3981:1.0 5461:1.0 11288:1.0 15781:1.0 16388:1.0 17666:1.0 
0.9624522206186075 5839:1.0 11298:1.0 18326:1.0 
0.25311109047441077 34:1.0 37:1.0 1598:1.0 2880:1.0 3744:1.0 8075:1.0 11022:1.0 11639:1.0 14593:1.0 16709:1.0 16709:1.0 18333:1.0 20536:1.0 
1.0 2970:1.0 2970:1.0 11245:1.0 12208:1.0 12375:1.0 14456:1.0 16505:1.0 
0.6813657829316956 8145:1.0 10839:1.0 12784:1.0 16504:1.0 16807:1.0 
0.953137485033505 2585:1.0 10266:1.0 11243:1.0 15941:1.0 15962:1.0 19415:1.0 
1.0 12535:1.0 
1.0 3665:1.0 
1.0 3531:1.0 15432:1.0 
1.0 95:1.0 6775:1.0 7874:1.0 11520:1.0 11676:1.0 15538:1.0 20536:1.0 
1.0 4969:1.0 12568:1.0 
0.6069244679481337 3521:1.0 6499:1.0 10853:1.0 12527:1.0 14905:1.0 
1.0 2562:1.0 3558:1.0 6133:1.0 6528:1.0 12926:1.0 19842:1.0 20118:1.0 
0.47263435619438426 777:1.0 8485:1.0 19431:1.0 19511:1.0 20642:1.0 
1.0 1927:1.0 3411:1.0 6977:1.0 8840:1.0 
1.0 
1.0 2019:1.0 2687:1.0 3115:1.0 6611:1.0 8674:1.0 
1.0 20835:1.0 
1.0 20695:1.0 
0.32440893957890793 2107:1.0 3013:1.0 3814:1.0 4969:1.0 8202:1.0 8342:1.0 14159:1.0 14541:1.0 19161:1.0 20067:1.0 
1.0 6519:1.0 8592:1.0 
1.0 9036:1.0 
1.0 269:1.0 
1.0 14350:1.0 16327:1.0 
0.5055289232969838 851:1.0 3665:1.0 5238:1.0 13801:1.0 13820:1.0 
1.0 36:1.0 1248:1.0 1414:1.0 2598:1.0 6517:1.0 6517:1.0 7941:1.0 8805:1.0 10460:1.0 13203:1.0 14032:1.0 15894:1.0 18927:1.0 19493:1.0 
1.0 3411:1.0 3558:1.0 9569:1.0 14469:1.0 
1.0 775:1.0 2685:1.0 
0.7164660813792253 25:1.0 33:1.0 570:1.0 3667:1.0 6977:1.0 8386:1.0 13535:1.0 16361:1.0 19395:1.0 
1.0 11365:1.0 16915:1.0 17170:1.0 
1.0 269:1.0 17518:1.0 
1.0 2266:1.0 2556:1.0 2698:1.0 3558:1.0 11279:1.0 11639:1.0 15144:1.0 17716:1.0 
1.0 1353:1.0 
0.41040629521989574 37:1.0 1526:1.0 1693:1.0 2027:1.0 4108:1.0 6594:1.0 7852:1.0 12568:1.0 13618:1.0 16504:1.0 19159:1.0 19407:1.0 
0.34129685014171657 244:1.0 692:1.0 3411:1.0 9644:1.0 15692:1.0 
0.494181975818401 2244:1.0 3251:1.0 8685:1.0 
1.0 269:1.0 2914:1.0 11812:1.0 15894:1.0 17309:1.0 
0.19131218911155495 1510:1.0 2970:1.0 3239:1.0 4401:1.0 9266:1.0 12421:1.0 19142:1.0 19728:1.0 
0.9552932757133699 34:1.0 37:1.0 58:1.0 3572:1.0 8145:1.0 9342:1.0 10473:1.0 10630:1.0 11697:1.0 18492:1.0 20067:1.0 
0.44424282282882716 1000:1.0 3153:1.0 10172:1.0 10642:1.0 12568:1.0 13291:1.0 15239:1.0 17818:1.0 18157:1.0 20502:1.0 
1.0 34:1.0 1556:1.0 2266:1.0 3752:1.0 7819:1.0 12548:1.0 13629:1.0 16743:1.0 19533:1.0 
1.0 10839:1.0 20526:1.0 
0.2657990762498994 1000:1.0 1102:1.0 3521:1.0 8093:1.0 8932:1.0 12046:1.0 17994:1.0 20644:1.0 20832:1.0 
1.0 7662:1.0 20494:1.0 
1.0 5795:1.0 9857:1.0 11279:1.0 
1.0 18690:1.0 20755:1.0 
0.7913999826753726 1060:1.0 2296:1.0 2558:1.0 6724:1.0 8152:1.0 18396:1.0 
1.0 2260:1.0 5983:1.0 13906:1.0 
0.6099800458496079 1000:1.0 3667:1.0 5046:1.0 6517:1.0 6919:1.0 10283:1.0 13203:1.0 14041:1.0 19363:1.0 20829:1.0 
1.0 
0.4857022985574753 1396:1.0 1822:1.0 3744:1.0 8685:1.0 11623:1.0 14726:1.0 17962:1.0 19493:1.0 
1.0 15446:1.0 19380:1.0 
1.0 12548:1.0 17277:1.0 17667:1.0 
1.0 
0.4462399876676592 2678:1.0 5879:1.0 8515:1.0 8840:1.0 15418:1.0 15941:1.0 18127:1.0 20624:1.0 
0.41412615692383575 1542:1.0 2260:1.0 7190:1.0 15446:1.0 
0.3216167783177264 1484:1.0 2244:1.0 4161:1.0 10839:1.0 12208:1.0 12375:1.0 13203:1.0 13632:1.0 15635:1.0 18062:1.0 19407:1.0 20009:1.0 
0.8626093399550583 1058:1.0 3526:1.0 6517:1.0 6722:1.0 12066:1.0 15941:1.0 
1.0 3526:1.0 6517:1.0 9815:1.0 14447:1.0 14469:1.0 15386:1.0 16709:1.0 17347:1.0 19294:1.0 20526:1.0 
1.0 6517:1.0 7524:1.0 7524:1.0 7997:1.0 11007:1.0 11639:1.0 13585:1.0 19959:1.0 20009:1.0 
1.0 70:1.0 2866:1.0 3922:1.0 6469:1.0 11483:1.0 13435:1.0 16709:1.0 17667:1.0 19395:1.0 
0.9045866957456578 2873:1.0 5230:1.0 5478:1.0 5897:1.0 5972:1.0 6873:1.0 7155:1.0 8031:1.0 8397:1.0 12924:1.0 
0.5281993873301345 570:1.0 775:1.0 859:1.0 3664:1.0 4108:1.0 8889:1.0 13707:1.0 
1.0 3531:1.0 6528:1.0 7085:1.0 11812:1.0 12548:1.0 15796:1.0 
1.0 851:1.0 1131:1.0 2126:1.0 2698:1.0 6486:1.0 6528:1.0 8833:1.0 10579:1.0 17929:1.0 19383:1.0 
1.0 6517:1.0 8196:1.0 
1.0 570:1.0 4047:1.0 13818:1.0 18886:1.0 
0.8017444426933811 125:1.0 951:1.0 2598:1.0 2598:1.0 5373:1.0 7898:1.0 9891:1.0 14358:1.0 18509:1.0 
1.0 2047:1.0 11239:1.0 15941:1.0 
1.0 2126:1.0 8093:1.0 19395:1.0 
1.0 58:1.0 2266:1.0 4812:1.0 6287:1.0 13291:1.0 
0.9939469467269054 3735:1.0 6806:1.0 12568:1.0 14437:1.0 17195:1.0 19602:1.0 
0.8480114318886638 89:1.0 2785:1.0 10283:1.0 12232:1.0 20461:1.0 
1.0 655:1.0 2785:1.0 11782:1.0 14224:1.0 16709:1.0 19395:1.0 
1.0 12402:1.0 
1.0 1000:1.0 3521:1.0 7347:1.0 13291:1.0 15991:1.0 
0.44583638410622156 8619:1.0 13670:1.0 19368:1.0 20732:1.0 
1.0 1987:1.0 16028:1.0 17266:1.0 
1.0 16036:1.0 20814:1.0 
1.0 269:1.0 1000:1.0 8344:1.0 12460:1.0 12568:1.0 16963:1.0 
1.0 2126:1.0 4969:1.0 6249:1.0 18808:1.0 
1.0 6519:1.0 15229:1.0 16036:1.0 
1.0 4719:1.0 4943:1.0 8297:1.0 12550:1.0 16714:1.0 19829:1.0 
1.0 2266:1.0 3512:1.0 7473:1.0 13291:1.0 16315:1.0 19380:1.0 
0.27224329516987306 1530:1.0 4075:1.0 5234:1.0 14469:1.0 15199:1.0 
0.45463089993133426 4558:1.0 6519:1.0 10149:1.0 11023:1.0 15992:1.0 19395:1.0 
1.0 2266:1.0 2662:1.0 2698:1.0 3411:1.0 17929:1.0 
0.6937778251408332 2755:1.0 15679:1.0 15894:1.0 17068:1.0 17994:1.0 
0.3475840233694498 9166:1.0 12022:1.0 16011:1.0 
1.0 1000:1.0 2029:1.0 2266:1.0 3411:1.0 6519:1.0 6873:1.0 9857:1.0 
1.0 2905:1.0 3453:1.0 3744:1.0 8906:1.0 9479:1.0 11302:1.0 12548:1.0 15641:1.0 16388:1.0 17667:1.0 18440:1.0 19932:1.0 
1.0 11182:1.0 17680:1.0 
1.0 3411:1.0 6471:1.0 
1.0 12550:1.0 14469:1.0 
1.0 10796:1.0 17347:1.0 
1.0 46:1.0 2598:1.0 2930:1.0 3919:1.0 11365:1.0 14222:1.0 17667:1.0 18795:1.0 
1.0 1542:1.0 2019:1.0 3094:1.0 6519:1.0 11182:1.0 11745:1.0 11745:1.0 15941:1.0 20439:1.0 20536:1.0 
1.0 570:1.0 2970:1.0 11388:1.0 18898:1.0 
1.0 13291:1.0 15894:1.0 16063:1.0 
8.023901679442784E-5 570:1.0 1414:1.0 2970:1.0 3558:1.0 4792:1.0 5069:1.0 8196:1.0 8484:1.0 11376:1.0 12406:1.0 16151:1.0 18938:1.0 20502:1.0 
1.0 7478:1.0 14469:1.0 19380:1.0 
1.0 879:1.0 17454:1.0 
1.0 3814:1.0 4969:1.0 8906:1.0 12548:1.0 13435:1.0 19294:1.0 20439:1.0 
1.0 4784:1.0 10258:1.0 20184:1.0 
1.0 125:1.0 775:1.0 8093:1.0 10540:1.0 10716:1.0 
1.0 15620:1.0 
1.0 9301:1.0 14800:1.0 
1.0 851:1.0 13217:1.0 18011:1.0 
1.0 2785:1.0 5254:1.0 19395:1.0 
1.0 763:1.0 1102:1.0 7057:1.0 10106:1.0 19493:1.0 
1.0 1394:1.0 12149:1.0 13291:1.0 
0.051115159831819953 1480:1.0 11257:1.0 16185:1.0 17347:1.0 18061:1.0 18483:1.0 18536:1.0 18933:1.0 20561:1.0 
1.0 1414:1.0 2266:1.0 2532:1.0 5461:1.0 10318:1.0 13203:1.0 13216:1.0 
0.8522459339419675 2287:1.0 3665:1.0 15759:1.0 
1.0 1000:1.0 2126:1.0 8093:1.0 
1.0 775:1.0 6893:1.0 6893:1.0 13199:1.0 
1.0 46:1.0 245:1.0 1631:1.0 2266:1.0 3814:1.0 6103:1.0 6594:1.0 8070:1.0 13435:1.0 17927:1.0 20526:1.0 
1.0 808:1.0 2726:1.0 20526:1.0 
1.0 1414:1.0 16178:1.0 17929:1.0 20337:1.0 
1.0 14641:1.0 20536:1.0 
0.5678303056745293 428:1.0 2266:1.0 4868:1.0 10320:1.0 
1.0 6859:1.0 
1.0 6611:1.0 
0.12884195749263916 10309:1.0 11537:1.0 11571:1.0 11936:1.0 
1.0 3526:1.0 5656:1.0 12548:1.0 12853:1.0 13273:1.0 13291:1.0 
1.0 2785:1.0 3665:1.0 
1.0 5025:1.0 5783:1.0 13435:1.0 16709:1.0 
0.5334465283003155 619:1.0 1293:1.0 6021:1.0 16239:1.0 
1.0 859:1.0 11445:1.0 14469:1.0 14469:1.0 17994:1.0 
0.6061718988236581 2788:1.0 7039:1.0 11527:1.0 14298:1.0 19380:1.0 20502:1.0 
1.0 3814:1.0 10458:1.0 15941:1.0 16361:1.0 18011:1.0 
0.9024591644774649 3420:1.0 3666:1.0 6060:1.0 18528:1.0 20386:1.0 
1.0 1000:1.0 5447:1.0 20439:1.0 
1.0 576:1.0 3599:1.0 3774:1.0 5499:1.0 6536:1.0 10458:1.0 10983:1.0 12708:1.0 14469:1.0 17716:1.0 18622:1.0 18901:1.0 20526:1.0 
0.8715429743543044 3411:1.0 10391:1.0 14353:1.0 
1.0 36:1.0 6517:1.0 16361:1.0 16571:1.0 
1.0 775:1.0 794:1.0 2763:1.0 6800:1.0 16452:1.0 
1.0 37:1.0 8543:1.0 12403:1.0 16327:1.0 19533:1.0 
1.0 12594:1.0 13321:1.0 19395:1.0 
0.4148640259534253 11527:1.0 11637:1.0 11639:1.0 13217:1.0 14468:1.0 
0.8165593211375076 7524:1.0 11537:1.0 13711:1.0 15894:1.0 17635:1.0 
0.44423997987838904 1288:1.0 1502:1.0 2020:1.0 2587:1.0 3521:1.0 3985:1.0 6873:1.0 6873:1.0 10928:1.0 11623:1.0 19233:1.0 20188:1.0 
0.5151418768198018 1854:1.0 8342:1.0 8408:1.0 
0.17633002916289697 45:1.0 10796:1.0 15792:1.0 18225:1.0 20723:1.0 
1.0 2043:1.0 3558:1.0 3910:1.0 10796:1.0 13937:1.0 18510:1.0 
1.0 8245:1.0 
1.0 570:1.0 2260:1.0 8142:1.0 8142:1.0 9601:1.0 12129:1.0 18132:1.0 19846:1.0 19958:1.0 21016:1.0 
0.07253331420994176 2298:1.0 2568:1.0 2713:1.0 3313:1.0 3753:1.0 4166:1.0 5651:1.0 8409:1.0 9325:1.0 10966:1.0 12061:1.0 17496:1.0 19380:1.0 
1.0 2745:1.0 8070:1.0 20338:1.0 
9.883591168709884E-4 859:1.0 2207:1.0 2880:1.0 3061:1.0 4003:1.0 6517:1.0 7091:1.0 9096:1.0 11182:1.0 11397:1.0 13820:1.0 14886:1.0 15343:1.0 15941:1.0 20003:1.0 
1.0 2126:1.0 2244:1.0 2581:1.0 10928:1.0 11745:1.0 15593:1.0 
0.8694974431866785 2266:1.0 2739:1.0 7392:1.0 10147:1.0 13420:1.0 13420:1.0 14017:1.0 20439:1.0 
0.3665038210585785 570:1.0 570:1.0 1542:1.0 2263:1.0 2970:1.0 3155:1.0 3420:1.0 3531:1.0 4969:1.0 4969:1.0 6893:1.0 14973:1.0 16050:1.0 16216:1.0 16229:1.0 17636:1.0 17636:1.0 18032:1.0 19574:1.0 
0.5472111144076791 506:1.0 570:1.0 2019:1.0 2148:1.0 4080:1.0 4583:1.0 4969:1.0 10283:1.0 13217:1.0 14469:1.0 15432:1.0 17667:1.0 
1.0 11376:1.0 
0.6075544568188324 5209:1.0 13196:1.0 17248:1.0 19564:1.0 
1.0 4236:1.0 
0.31540294990832085 1000:1.0 1662:1.0 2687:1.0 2973:1.0 6775:1.0 6775:1.0 7543:1.0 10540:1.0 18766:1.0 20600:1.0 
1.0 14041:1.0 
0.7141922753208776 192:1.0 1269:1.0 3637:1.0 4461:1.0 13291:1.0 16953:1.0 17639:1.0 21049:1.0 
1.0 2022:1.0 6255:1.0 7603:1.0 9550:1.0 15593:1.0 15593:1.0 15894:1.0 16953:1.0 
0.7922718250280395 288:1.0 1374:1.0 15894:1.0 16705:1.0 20124:1.0 
0.6889225605702989 1562:1.0 4326:1.0 7524:1.0 8152:1.0 10283:1.0 14223:1.0 14223:1.0 19481:1.0 
0.5441570400501498 264:1.0 5931:1.0 6775:1.0 16841:1.0 20536:1.0 20919:1.0 
0.30898453326282066 12568:1.0 13949:1.0 20622:1.0 
1.0 2581:1.0 2745:1.0 12429:1.0 13199:1.0 
1.0 494:1.0 2970:1.0 4728:1.0 8991:1.0 14469:1.0 
1.0 570:1.0 2813:1.0 4583:1.0 5461:1.0 16388:1.0 20067:1.0 20942:1.0 
1.0 4108:1.0 6594:1.0 11283:1.0 12568:1.0 
0.5012501280230458 5168:1.0 5168:1.0 6171:1.0 7245:1.0 11558:1.0 12498:1.0 18738:1.0 19385:1.0 20424:1.0 
0.40253913383342693 6663:1.0 13618:1.0 14101:1.0 16123:1.0 17916:1.0 18513:1.0 19407:1.0 20106:1.0 
1.0 7524:1.0 8364:1.0 8387:1.0 
1.0 2598:1.0 4415:1.0 6517:1.0 7997:1.0 8403:1.0 13273:1.0 15960:1.0 19574:1.0 
0.2523468396303757 1000:1.0 1414:1.0 3420:1.0 6664:1.0 6815:1.0 8363:1.0 9166:1.0 9683:1.0 11182:1.0 11243:1.0 11769:1.0 13154:1.0 16816:1.0 18011:1.0 
1.0 2598:1.0 12568:1.0 
1.0 33:1.0 2266:1.0 10510:1.0 18141:1.0 18690:1.0 
0.40341173917609074 442:1.0 2127:1.0 2494:1.0 6263:1.0 12935:1.0 13875:1.0 14551:1.0 15763:1.0 16121:1.0 16415:1.0 18528:1.0 19881:1.0 20988:1.0 
1.0 6722:1.0 8511:1.0 17282:1.0 17334:1.0 
1.0 3833:1.0 10126:1.0 
1.0 3411:1.0 15692:1.0 
1.0 13979:1.0 16361:1.0 
1.0 3744:1.0 4472:1.0 7421:1.0 9315:1.0 11445:1.0 11445:1.0 
1.0 3411:1.0 7742:1.0 
1.0 693:1.0 6517:1.0 10538:1.0 16709:1.0 19357:1.0 
0.1324570795680556 6833:1.0 10126:1.0 16531:1.0 20783:1.0 
1.0 15894:1.0 
1.0 2266:1.0 4969:1.0 13435:1.0 14358:1.0 
1.0 20526:1.0 
1.0 775:1.0 
0.7737570296601848 1913:1.0 2785:1.0 2785:1.0 13083:1.0 13658:1.0 13957:1.0 16239:1.0 
0.42354726917553825 1928:1.0 3526:1.0 6447:1.0 8708:1.0 9602:1.0 12162:1.0 13291:1.0 13435:1.0 14309:1.0 18833:1.0 20526:1.0 
0.4503771491377301 1616:1.0 2696:1.0 3744:1.0 4502:1.0 6517:1.0 9550:1.0 13435:1.0 16650:1.0 16709:1.0 17195:1.0 
0.26359293326122385 2365:1.0 2549:1.0 2556:1.0 8906:1.0 14037:1.0 19888:1.0 
1.0 14155:1.0 
1.0 269:1.0 4617:1.0 13427:1.0 15859:1.0 15941:1.0 
1.0 2970:1.0 15705:1.0 21075:1.0 
0.771546454289296 2014:1.0 13291:1.0 18690:1.0 19105:1.0 
1.0 570:1.0 3744:1.0 6706:1.0 8906:1.0 13435:1.0 20967:1.0 
1.0 3531:1.0 21055:1.0 
0.046081299311334215 11457:1.0 12568:1.0 20832:1.0 
0.6039753785481533 197:1.0 283:1.0 3754:1.0 4719:1.0 4969:1.0 6857:1.0 7729:1.0 9481:1.0 10109:1.0 20413:1.0 
1.0 9601:1.0 11325:1.0 12568:1.0 15361:1.0 18160:1.0 
0.1158243899001737 1000:1.0 2581:1.0 3833:1.0 3913:1.0 5513:1.0 5527:1.0 6517:1.0 8344:1.0 9493:1.0 16997:1.0 18847:1.0 
0.6996856434601708 1269:1.0 11745:1.0 16584:1.0 17272:1.0 
0.4113033221342899 2759:1.0 11721:1.0 17929:1.0 19538:1.0 
0.7379063699416553 3515:1.0 4063:1.0 17271:1.0 
0.5774821373057003 6439:1.0 12912:1.0 16010:1.0 16537:1.0 
1.0 2262:1.0 2333:1.0 10041:1.0 20018:1.0 
1.0 6517:1.0 6611:1.0 7079:1.0 10550:1.0 10983:1.0 11290:1.0 14957:1.0 15590:1.0 15641:1.0 19294:1.0 
0.8144097403424166 2252:1.0 3249:1.0 8984:1.0 11388:1.0 11916:1.0 13427:1.0 15038:1.0 15816:1.0 
0.5420214306314667 1000:1.0 2333:1.0 4864:1.0 11376:1.0 14358:1.0 15361:1.0 15593:1.0 16364:1.0 18536:1.0 
0.2456226234262306 2260:1.0 2598:1.0 2970:1.0 2970:1.0 4317:1.0 6517:1.0 11225:1.0 11745:1.0 20526:1.0 
0.6999786135938006 3411:1.0 3744:1.0 14415:1.0 15692:1.0 19395:1.0 
1.0 442:1.0 4969:1.0 7560:1.0 15593:1.0 
1.0 3698:1.0 14358:1.0 
1.0 33:1.0 12208:1.0 12375:1.0 12403:1.0 19728:1.0 
1.0 442:1.0 3316:1.0 7941:1.0 10928:1.0 11445:1.0 14041:1.0 15488:1.0 15488:1.0 16953:1.0 
0.3028507751530145 154:1.0 182:1.0 9360:1.0 12204:1.0 14468:1.0 15325:1.0 20517:1.0 
1.0 12548:1.0 18648:1.0 
1.0 
1.0 182:1.0 3492:1.0 8196:1.0 
1.0 2598:1.0 3411:1.0 8408:1.0 9570:1.0 11182:1.0 16816:1.0 
0.8806600215362842 7784:1.0 11747:1.0 13175:1.0 18266:1.0 
0.06171413112948392 9517:1.0 16399:1.0 20924:1.0 
0.6774059875444927 442:1.0 2745:1.0 6594:1.0 7524:1.0 9301:1.0 9550:1.0 10788:1.0 12559:1.0 18690:1.0 
0.009708854787821412 2313:1.0 3200:1.0 6664:1.0 8283:1.0 15107:1.0 21029:1.0 
1.0 13881:1.0 20464:1.0 
1.0 12548:1.0 19533:1.0 
1.0 2274:1.0 4583:1.0 6775:1.0 13836:1.0 
1.0 3572:1.0 13990:1.0 
1.0 401:1.0 412:1.0 494:1.0 2043:1.0 3619:1.0 5702:1.0 9166:1.0 10856:1.0 11745:1.0 17827:1.0 
1.0 3411:1.0 16709:1.0 
1.0 17347:1.0 
0.15110202827539038 4600:1.0 12256:1.0 14447:1.0 
0.7460315758051865 2482:1.0 6107:1.0 10738:1.0 17075:1.0 17818:1.0 20526:1.0 
0.28763556977634014 570:1.0 2260:1.0 2970:1.0 8093:1.0 10839:1.0 13196:1.0 15189:1.0 16200:1.0 20723:1.0 
0.8085883300888423 4012:1.0 4646:1.0 5786:1.0 8781:1.0 12050:1.0 14526:1.0 14526:1.0 19959:1.0 
1.0 3526:1.0 6674:1.0 6800:1.0 8906:1.0 11812:1.0 13291:1.0 14130:1.0 15038:1.0 15593:1.0 
1.0 1662:1.0 17577:1.0 
0.3439062628008527 4975:1.0 6401:1.0 14248:1.0 19233:1.0 
0.1403302602528877 3649:1.0 4969:1.0 8685:1.0 12149:1.0 13217:1.0 13435:1.0 16085:1.0 
0.7120529264568389 2178:1.0 3558:1.0 6800:1.0 13868:1.0 15513:1.0 15859:1.0 16787:1.0 
0.5726433298666264 85:1.0 775:1.0 847:1.0 4204:1.0 10014:1.0 13906:1.0 15488:1.0 17900:1.0 18576:1.0 18588:1.0 
0.5574266844799013 2255:1.0 2437:1.0 2841:1.0 4506:1.0 6517:1.0 7994:1.0 16051:1.0 18011:1.0 
1.0 8673:1.0 9898:1.0 20127:1.0 20884:1.0 
0.8069001836519033 2407:1.0 8209:1.0 14247:1.0 15878:1.0 
1.0 14541:1.0 16388:1.0 20526:1.0 
1.0 775:1.0 5749:1.0 11476:1.0 13707:1.0 
1.0 12340:1.0 
1.0 6528:1.0 17347:1.0 
0.32493627845749223 1217:1.0 2716:1.0 
1.0 9711:1.0 
1.0 1394:1.0 2266:1.0 2598:1.0 5373:1.0 6724:1.0 13681:1.0 17271:1.0 17385:1.0 20541:1.0 
1.0 1820:1.0 2351:1.0 5105:1.0 19733:1.0 
1.0 
0.898084034508628 1510:1.0 1598:1.0 6517:1.0 11300:1.0 11745:1.0 
0.28381875685245994 7773:1.0 9356:1.0 13759:1.0 15446:1.0 17662:1.0 
1.0 6684:1.0 15143:1.0 
1.0 1510:1.0 3411:1.0 6255:1.0 9898:1.0 17616:1.0 
0.12507371849892712 3347:1.0 4094:1.0 4660:1.0 5216:1.0 10928:1.0 16036:1.0 
1.0 2598:1.0 6873:1.0 10545:1.0 11745:1.0 12568:1.0 20290:1.0 20903:1.0 
1.0 1000:1.0 1919:1.0 2266:1.0 15497:1.0 
0.8298794549785341 2291:1.0 4195:1.0 5035:1.0 13435:1.0 14469:1.0 20526:1.0 
1.0 3531:1.0 3910:1.0 
1.0 3595:1.0 9154:1.0 12548:1.0 13291:1.0 19316:1.0 19749:1.0 
1.0 1204:1.0 4719:1.0 8906:1.0 9287:1.0 20823:1.0 
1.0 17367:1.0 20777:1.0 
0.4337632916183168 1060:1.0 3411:1.0 14709:1.0 
0.5642200571639663 3744:1.0 14368:1.0 14944:1.0 16709:1.0 
1.0 775:1.0 8339:1.0 8685:1.0 11376:1.0 17277:1.0 19380:1.0 
1.0 428:1.0 1288:1.0 20600:1.0 
1.0 19969:1.0 
1.0 2635:1.0 3595:1.0 5928:1.0 12548:1.0 15171:1.0 16273:1.0 19533:1.0 
0.9408622090898072 33:1.0 3607:1.0 3794:1.0 3794:1.0 6103:1.0 6517:1.0 11121:1.0 11812:1.0 12568:1.0 17239:1.0 18440:1.0 18509:1.0 18915:1.0 20526:1.0 
0.5638827038203178 2152:1.0 2447:1.0 2565:1.0 6517:1.0 8389:1.0 
1.0 7524:1.0 11232:1.0 14192:1.0 15437:1.0 19481:1.0 20372:1.0 
0.3085301800206679 3858:1.0 5513:1.0 8894:1.0 11745:1.0 11745:1.0 12681:1.0 16709:1.0 
1.0 12568:1.0 13217:1.0 14226:1.0 19595:1.0 
1.0 2126:1.0 3572:1.0 14605:1.0 17667:1.0 19533:1.0 
0.3350924745442138 1502:1.0 1502:1.0 2034:1.0 4583:1.0 6977:1.0 8457:1.0 8869:1.0 
1.0 1502:1.0 2787:1.0 7726:1.0 8344:1.0 8765:1.0 11344:1.0 
1.0 12548:1.0 19380:1.0 
1.0 845:1.0 5684:1.0 6528:1.0 6893:1.0 14386:1.0 15099:1.0 
1.0 14020:1.0 
0.30754446393497326 4034:1.0 4583:1.0 15894:1.0 18690:1.0 18690:1.0 
1.0 
0.9553215232430191 39:1.0 3526:1.0 6431:1.0 6568:1.0 11531:1.0 17638:1.0 
0.0681667251450249 3019:1.0 11336:1.0 15038:1.0 17899:1.0 
0.8902828464039582 2377:1.0 2698:1.0 7085:1.0 7524:1.0 9057:1.0 18833:1.0 20067:1.0 
1.0 1000:1.0 4552:1.0 10839:1.0 
0.15948377720035167 2437:1.0 9769:1.0 12568:1.0 
0.3152654707232616 1128:1.0 1393:1.0 2796:1.0 7524:1.0 13618:1.0 14925:1.0 15866:1.0 20539:1.0 
1.0 412:1.0 3894:1.0 12155:1.0 12568:1.0 13309:1.0 14165:1.0 19959:1.0 
0.32675707508952534 36:1.0 3526:1.0 3572:1.0 3573:1.0 9704:1.0 12046:1.0 16550:1.0 16709:1.0 17006:1.0 18091:1.0 20188:1.0 
0.7072849373467058 3531:1.0 5056:1.0 7524:1.0 8765:1.0 12548:1.0 19514:1.0 20621:1.0 
1.0 36:1.0 37:1.0 570:1.0 2970:1.0 3531:1.0 17667:1.0 
0.24953336336780815 3411:1.0 10458:1.0 
1.0 3579:1.0 11948:1.0 12548:1.0 
1.0 633:1.0 2970:1.0 
1.0 8271:1.0 
1.0 718:1.0 4646:1.0 6517:1.0 6561:1.0 7301:1.0 8765:1.0 13291:1.0 14469:1.0 20630:1.0 21065:1.0 
1.0 5497:1.0 9883:1.0 
0.48567871714638805 4326:1.0 7425:1.0 16529:1.0 17700:1.0 
0.5703058035967579 3061:1.0 6579:1.0 6873:1.0 10419:1.0 11300:1.0 15739:1.0 16226:1.0 17716:1.0 18153:1.0 
1.0 1165:1.0 4969:1.0 16816:1.0 19316:1.0 19395:1.0 
0.5560775720977146 3085:1.0 16140:1.0 
0.8392459881588932 421:1.0 671:1.0 2718:1.0 15842:1.0 20600:1.0 
0.48024535405847524 3189:1.0 4948:1.0 10928:1.0 16798:1.0 16798:1.0 19209:1.0 19209:1.0 
1.0 2341:1.0 3239:1.0 3521:1.0 4359:1.0 18528:1.0 
1.0 13427:1.0 17475:1.0 
1.0 17929:1.0 
1.0 16671:1.0 
0.6662092831659255 5484:1.0 14284:1.0 16571:1.0 
1.0 570:1.0 4583:1.0 8736:1.0 12403:1.0 14944:1.0 20526:1.0 
0.5752481795604437 25:1.0 10101:1.0 11266:1.0 
1.0 2395:1.0 4079:1.0 
0.8686093588988724 412:1.0 1252:1.0 2587:1.0 3061:1.0 3577:1.0 4636:1.0 4719:1.0 10742:1.0 11365:1.0 12824:1.0 13555:1.0 14791:1.0 15515:1.0 16708:1.0 
1.0 2266:1.0 3411:1.0 7941:1.0 
1.0 4972:1.0 14437:1.0 
1.0 3558:1.0 4505:1.0 4583:1.0 6756:1.0 10283:1.0 13244:1.0 15894:1.0 16709:1.0 19316:1.0 19530:1.0 
0.4068157322323669 234:1.0 5403:1.0 11962:1.0 
0.3349775198266397 9234:1.0 15038:1.0 
1.0 169:1.0 755:1.0 1278:1.0 10796:1.0 19534:1.0 
1.0 570:1.0 633:1.0 2407:1.0 8113:1.0 13670:1.0 
0.12797020207743434 318:1.0 1791:1.0 2118:1.0 2260:1.0 3569:1.0 6517:1.0 12242:1.0 12616:1.0 14469:1.0 
1.0 2031:1.0 4842:1.0 10111:1.0 
0.34230009252940113 581:1.0 6517:1.0 11607:1.0 20783:1.0 
0.05140404259194937 570:1.0 4969:1.0 5187:1.0 7854:1.0 11182:1.0 
1.0 4826:1.0 6863:1.0 
1.0 2175:1.0 5951:1.0 6190:1.0 6775:1.0 8587:1.0 10283:1.0 
1.0 1411:1.0 4755:1.0 11925:1.0 18128:1.0 
1.0 775:1.0 9101:1.0 11812:1.0 12548:1.0 14694:1.0 18593:1.0 19294:1.0 
0.1266922093447346 704:1.0 5484:1.0 5609:1.0 6142:1.0 9301:1.0 12848:1.0 14492:1.0 16219:1.0 17475:1.0 19511:1.0 
0.1474804212631152 2266:1.0 3411:1.0 5484:1.0 10006:1.0 10458:1.0 
1.0 892:1.0 2266:1.0 6517:1.0 8765:1.0 13906:1.0 13953:1.0 14469:1.0 19540:1.0 20461:1.0 
0.14710264394627315 9186:1.0 12315:1.0 18616:1.0 
1.0 4969:1.0 5933:1.0 8093:1.0 13203:1.0 19513:1.0 19846:1.0 20536:1.0 
1.0 2266:1.0 2269:1.0 3733:1.0 4969:1.0 6761:1.0 8477:1.0 9815:1.0 10014:1.0 11812:1.0 15692:1.0 17347:1.0 
1.0 5715:1.0 6414:1.0 6611:1.0 10558:1.0 11312:1.0 12548:1.0 
1.0 18690:1.0 
1.0 36:1.0 3531:1.0 6471:1.0 11812:1.0 13199:1.0 13199:1.0 15781:1.0 18404:1.0 19380:1.0 20452:1.0 20452:1.0 
1.0 4969:1.0 14412:1.0 14437:1.0 17754:1.0 20807:1.0 
0.36054213661941586 1414:1.0 1461:1.0 2698:1.0 4024:1.0 7753:1.0 10496:1.0 11378:1.0 15967:1.0 16042:1.0 16284:1.0 19573:1.0 19812:1.0 20430:1.0 21062:1.0 
1.0 1165:1.0 2609:1.0 3122:1.0 5105:1.0 6517:1.0 16326:1.0 18011:1.0 
0.8132762178865871 428:1.0 1120:1.0 4541:1.0 8698:1.0 8821:1.0 19602:1.0 
1.0 570:1.0 2970:1.0 4969:1.0 12568:1.0 18870:1.0 20439:1.0 20439:1.0 
0.41278748712718677 570:1.0 1662:1.0 3910:1.0 8707:1.0 11745:1.0 12861:1.0 13217:1.0 13217:1.0 15482:1.0 20526:1.0 
0.1808761279925463 3411:1.0 6887:1.0 9315:1.0 11812:1.0 12504:1.0 12734:1.0 17177:1.0 
0.3609057901045306 2532:1.0 9486:1.0 11639:1.0 15107:1.0 15437:1.0 
1.0 9315:1.0 14944:1.0 
1.0 1055:1.0 13291:1.0 18929:1.0 
0.4562805297365167 3004:1.0 4375:1.0 13529:1.0 14697:1.0 15894:1.0 17136:1.0 
0.798404589264173 1102:1.0 1275:1.0 4771:1.0 6103:1.0 6103:1.0 6103:1.0 6103:1.0 7464:1.0 7464:1.0 8344:1.0 10839:1.0 11662:1.0 16846:1.0 
0.02277128609174921 3177:1.0 3411:1.0 6528:1.0 8344:1.0 11639:1.0 12228:1.0 13812:1.0 18231:1.0 18971:1.0 19135:1.0 
0.3954392936052557 3411:1.0 4158:1.0 4939:1.0 5783:1.0 6594:1.0 6863:1.0 12171:1.0 12568:1.0 18480:1.0 
1.0 16807:1.0 
1.0 
0.681245758746652 1962:1.0 2785:1.0 3665:1.0 6793:1.0 
0.5356009279030789 2143:1.0 6369:1.0 7742:1.0 
0.3725668039046916 340:1.0 6517:1.0 7524:1.0 7597:1.0 13953:1.0 14656:1.0 
1.0 14161:1.0 16399:1.0 18198:1.0 
0.36149481091704333 3808:1.0 13994:1.0 16355:1.0 18561:1.0 20066:1.0 
0.614866569127109 570:1.0 3411:1.0 4939:1.0 7085:1.0 10463:1.0 12403:1.0 14469:1.0 15446:1.0 15763:1.0 18795:1.0 
0.6582363635491647 34:1.0 3831:1.0 4619:1.0 18690:1.0 20413:1.0 20536:1.0 
0.813779738141642 7140:1.0 7936:1.0 8266:1.0 13199:1.0 16385:1.0 18607:1.0 20426:1.0 20536:1.0 
1.0 4257:1.0 18690:1.0 
1.0 13906:1.0 15414:1.0 17475:1.0 
1.0 2019:1.0 11182:1.0 11812:1.0 15667:1.0 20790:1.0 
1.0 20511:1.0 
1.0 3411:1.0 4801:1.0 
1.0 5710:1.0 12149:1.0 12548:1.0 14469:1.0 15347:1.0 19533:1.0 19602:1.0 
1.0 859:1.0 3662:1.0 4805:1.0 8993:1.0 9740:1.0 10627:1.0 12548:1.0 16571:1.0 
1.0 379:1.0 11531:1.0 11962:1.0 13244:1.0 13653:1.0 15941:1.0 19453:1.0 
0.09518316542832536 34:1.0 41:1.0 570:1.0 570:1.0 14358:1.0 19254:1.0 
0.47481454873085815 4119:1.0 13596:1.0 19161:1.0 20883:1.0 
1.0 20536:1.0 20565:1.0 
0.6675996000858371 65:1.0 1060:1.0 4602:1.0 14161:1.0 14469:1.0 16327:1.0 16427:1.0 20726:1.0 20734:1.0 
1.0 1598:1.0 2930:1.0 3411:1.0 7225:1.0 
0.4543967196146392 36:1.0 412:1.0 1414:1.0 1502:1.0 2266:1.0 2266:1.0 3190:1.0 6237:1.0 7827:1.0 12603:1.0 14192:1.0 16269:1.0 19958:1.0 20536:1.0 
1.0 6133:1.0 15894:1.0 19959:1.0 
1.0 1631:1.0 2745:1.0 3192:1.0 5333:1.0 13970:1.0 14469:1.0 16418:1.0 16571:1.0 18115:1.0 19716:1.0 21062:1.0 
0.6234567249478967 1162:1.0 2687:1.0 4332:1.0 4332:1.0 4583:1.0 6165:1.0 9011:1.0 10495:1.0 10737:1.0 11745:1.0 13420:1.0 16709:1.0 17972:1.0 20732:1.0 21086:1.0 
1.0 570:1.0 4415:1.0 5702:1.0 9301:1.0 10126:1.0 13625:1.0 17680:1.0 18571:1.0 20832:1.0 
0.8963676820582397 3239:1.0 3558:1.0 3744:1.0 6789:1.0 10261:1.0 13203:1.0 17667:1.0 19380:1.0 
0.6948571056267929 2691:1.0 5972:1.0 10460:1.0 11841:1.0 12565:1.0 12706:1.0 15432:1.0 15894:1.0 16571:1.0 16807:1.0 17420:1.0 18564:1.0 
0.7214794079846176 1378:1.0 1782:1.0 3148:1.0 3798:1.0 6134:1.0 6134:1.0 9762:1.0 9898:1.0 10644:1.0 11135:1.0 13291:1.0 13435:1.0 13652:1.0 17861:1.0 
0.9465998669238704 570:1.0 1000:1.0 5373:1.0 12239:1.0 14513:1.0 17127:1.0 
0.5709584699383147 3417:1.0 3573:1.0 8501:1.0 10314:1.0 12458:1.0 19732:1.0 19735:1.0 21096:1.0 
1.0 36:1.0 570:1.0 775:1.0 3460:1.0 15566:1.0 19316:1.0 
1.0 12568:1.0 
1.0 633:1.0 3061:1.0 
0.823912190419316 8166:1.0 8166:1.0 8166:1.0 
0.21078634743247185 1905:1.0 2581:1.0 3658:1.0 14829:1.0 15979:1.0 18833:1.0 21075:1.0 
0.2866405806115504 3315:1.0 7524:1.0 10796:1.0 11403:1.0 11745:1.0 13906:1.0 14250:1.0 14957:1.0 15395:1.0 16709:1.0 
0.4914063697874678 570:1.0 2148:1.0 3129:1.0 3833:1.0 4969:1.0 7431:1.0 10283:1.0 11949:1.0 12870:1.0 19533:1.0 19807:1.0 
0.633957145203581 3341:1.0 4969:1.0 10598:1.0 13292:1.0 
0.8829883850465423 1598:1.0 2698:1.0 8358:1.0 13291:1.0 13435:1.0 16709:1.0 20162:1.0 
1.0 570:1.0 1168:1.0 3744:1.0 5928:1.0 7051:1.0 9641:1.0 20184:1.0 
0.03546235728469191 775:1.0 8311:1.0 9586:1.0 10922:1.0 14469:1.0 15104:1.0 20396:1.0 
1.0 10928:1.0 20374:1.0 
1.0 2287:1.0 3985:1.0 6528:1.0 6873:1.0 13820:1.0 19511:1.0 
1.0 12706:1.0 
1.0 1102:1.0 2841:1.0 3239:1.0 3239:1.0 9972:1.0 12208:1.0 12375:1.0 19493:1.0 
0.5502677064861489 1414:1.0 2020:1.0 6714:1.0 6714:1.0 8364:1.0 12764:1.0 18203:1.0 
1.0 5778:1.0 13199:1.0 19395:1.0 20723:1.0 
1.0 3411:1.0 13906:1.0 16829:1.0 
0.9255978632656787 1662:1.0 1753:1.0 1859:1.0 
1.0 
0.5468801561365516 1000:1.0 8310:1.0 10468:1.0 
1.0 341:1.0 
1.0 16036:1.0 
1.0 1414:1.0 1510:1.0 3004:1.0 4728:1.0 6287:1.0 9301:1.0 9301:1.0 10476:1.0 11074:1.0 12468:1.0 13203:1.0 
1.0 1542:1.0 9054:1.0 20536:1.0 20723:1.0 
0.07375972710070886 10458:1.0 10681:1.0 17742:1.0 
1.0 775:1.0 2260:1.0 2349:1.0 3744:1.0 8344:1.0 10283:1.0 15099:1.0 16709:1.0 
1.0 1451:1.0 7079:1.0 9019:1.0 13435:1.0 13618:1.0 15590:1.0 20526:1.0 
0.2074390791012211 1267:1.0 2214:1.0 3560:1.0 3665:1.0 4969:1.0 7675:1.0 9256:1.0 12921:1.0 15941:1.0 15941:1.0 16997:1.0 
0.4092307534338876 859:1.0 3411:1.0 6252:1.0 14469:1.0 16036:1.0 16036:1.0 20726:1.0 20726:1.0 
1.0 10545:1.0 16361:1.0 
0.0019803056041742743 1000:1.0 2598:1.0 3346:1.0 3411:1.0 3411:1.0 8093:1.0 14469:1.0 15781:1.0 15941:1.0 16709:1.0 19395:1.0 19395:1.0 
1.0 
1.0 34:1.0 570:1.0 1394:1.0 1566:1.0 3531:1.0 
0.34053437536538306 1725:1.0 10453:1.0 13291:1.0 14162:1.0 17544:1.0 17994:1.0 
0.09328508194549041 34:1.0 428:1.0 2266:1.0 2301:1.0 2482:1.0 2609:1.0 3012:1.0 4939:1.0 6898:1.0 7331:1.0 8339:1.0 8820:1.0 14612:1.0 15395:1.0 15412:1.0 17277:1.0 20067:1.0 
1.0 775:1.0 2745:1.0 14358:1.0 20226:1.0 
0.8632023235696561 1769:1.0 3053:1.0 11237:1.0 11541:1.0 12759:1.0 13199:1.0 13273:1.0 13291:1.0 17766:1.0 19395:1.0 
0.5021365377606757 6830:1.0 10132:1.0 13427:1.0 14235:1.0 19783:1.0 
1.0 677:1.0 1268:1.0 6722:1.0 7506:1.0 15941:1.0 19178:1.0 20473:1.0 
1.0 33:1.0 1057:1.0 1414:1.0 2422:1.0 2719:1.0 8694:1.0 9972:1.0 10498:1.0 13427:1.0 19501:1.0 
1.0 414:1.0 2296:1.0 3411:1.0 5689:1.0 7080:1.0 7524:1.0 11388:1.0 11745:1.0 12548:1.0 12568:1.0 16709:1.0 17739:1.0 18513:1.0 20067:1.0 20536:1.0 
1.0 10126:1.0 15287:1.0 
1.0 3411:1.0 
0.21791044297825543 58:1.0 570:1.0 1502:1.0 4969:1.0 5373:1.0 5972:1.0 6724:1.0 8685:1.0 10730:1.0 11376:1.0 13435:1.0 13912:1.0 16085:1.0 17929:1.0 
1.0 4583:1.0 4609:1.0 12548:1.0 16036:1.0 17347:1.0 
1.0 605:1.0 1510:1.0 2287:1.0 3335:1.0 8344:1.0 12548:1.0 19493:1.0 19575:1.0 21015:1.0 
1.0 2024:1.0 
1.0 7195:1.0 8166:1.0 8639:1.0 11889:1.0 14973:1.0 
0.9994486752492813 2260:1.0 13203:1.0 19732:1.0 
0.5834017689047527 2266:1.0 2453:1.0 12417:1.0 12926:1.0 16504:1.0 
1.0 6517:1.0 
0.7929454665077239 9:1.0 55:1.0 4969:1.0 10616:1.0 
1.0 2970:1.0 5484:1.0 14468:1.0 
0.3583628427908352 674:1.0 2992:1.0 2992:1.0 9251:1.0 9251:1.0 9251:1.0 9301:1.0 10596:1.0 11635:1.0 11723:1.0 12987:1.0 15955:1.0 16042:1.0 16218:1.0 20067:1.0 
0.14528724098527834 1598:1.0 13203:1.0 18080:1.0 19276:1.0 
1.0 15960:1.0 19640:1.0 
1.0 1000:1.0 5461:1.0 7348:1.0 8639:1.0 8932:1.0 9469:1.0 10928:1.0 12548:1.0 15590:1.0 
1.0 859:1.0 10796:1.0 16007:1.0 16934:1.0 
1.0 125:1.0 1102:1.0 1797:1.0 4801:1.0 6517:1.0 8459:1.0 12535:1.0 
1.0 3637:1.0 4636:1.0 13160:1.0 15781:1.0 
1.0 
1.0 8685:1.0 
1.0 13842:1.0 19635:1.0 20777:1.0 
0.9048185686185775 5497:1.0 12338:1.0 
1.0 4969:1.0 11812:1.0 
1.0 5998:1.0 
0.296557266254437 3100:1.0 6684:1.0 10628:1.0 15633:1.0 19363:1.0 
0.30087812387750107 1364:1.0 2266:1.0 2266:1.0 2785:1.0 3665:1.0 6048:1.0 7608:1.0 17667:1.0 
0.027374138203947282 37:1.0 263:1.0 2019:1.0 11182:1.0 
1.0 7079:1.0 10604:1.0 
0.12318821592088346 570:1.0 9554:1.0 10798:1.0 15437:1.0 
1.0 1194:1.0 
0.04042464009658419 1378:1.0 5715:1.0 9315:1.0 14241:1.0 21021:1.0 
0.0821795915073325 2698:1.0 3411:1.0 6528:1.0 8093:1.0 8301:1.0 8615:1.0 8869:1.0 11279:1.0 15641:1.0 16709:1.0 16709:1.0 
1.0 
1.0 6517:1.0 
0.48148796637998514 1275:1.0 7524:1.0 8869:1.0 19635:1.0 20198:1.0 
0.19977166263455606 1043:1.0 2434:1.0 6278:1.0 11571:1.0 15894:1.0 18956:1.0 19741:1.0 21096:1.0 
0.8431285760655471 2531:1.0 13553:1.0 19354:1.0 20605:1.0 20623:1.0 
0.9711909135357076 2034:1.0 5254:1.0 7524:1.0 10540:1.0 11182:1.0 16176:1.0 16406:1.0 21076:1.0 
0.13449122379635065 1651:1.0 4545:1.0 4775:1.0 4939:1.0 
1.0 7762:1.0 12568:1.0 
1.0 4566:1.0 12568:1.0 13338:1.0 18513:1.0 
0.001360205942808012 696:1.0 1802:1.0 8028:1.0 12568:1.0 13217:1.0 19407:1.0 
0.15246456517410817 980:1.0 3704:1.0 5963:1.0 6653:1.0 7079:1.0 8639:1.0 10436:1.0 11365:1.0 11588:1.0 14456:1.0 15204:1.0 
0.6173941697802154 1542:1.0 11745:1.0 21087:1.0 
1.0 2116:1.0 7079:1.0 18528:1.0 
0.6689344784233001 2022:1.0 3739:1.0 12568:1.0 15593:1.0 17518:1.0 20600:1.0 
1.0 1269:1.0 3665:1.0 6873:1.0 11708:1.0 11745:1.0 11745:1.0 12568:1.0 14089:1.0 14176:1.0 16327:1.0 
0.9941478436515238 10292:1.0 
1.0 3061:1.0 4969:1.0 6154:1.0 9815:1.0 
1.0 2745:1.0 3831:1.0 6517:1.0 6528:1.0 8344:1.0 17991:1.0 
1.0 775:1.0 799:1.0 8954:1.0 19304:1.0 19380:1.0 20439:1.0 
0.37435639153692235 3411:1.0 7448:1.0 11074:1.0 13303:1.0 13523:1.0 15322:1.0 20930:1.0 
0.1807023173971063 46:1.0 14460:1.0 15051:1.0 16085:1.0 
0.24557570089333464 1808:1.0 2319:1.0 6624:1.0 11617:1.0 15969:1.0 20280:1.0 
0.31472308684218464 442:1.0 2444:1.0 3031:1.0 12352:1.0 20004:1.0 
0.16140997118785 8145:1.0 8546:1.0 11534:1.0 14176:1.0 15894:1.0 17775:1.0 20783:1.0 
1.0 3411:1.0 3744:1.0 5484:1.0 11074:1.0 14952:1.0 16006:1.0 
0.9274405828342618 2598:1.0 6271:1.0 6517:1.0 
0.3785758516868951 3153:1.0 4937:1.0 12568:1.0 12568:1.0 
1.0 3497:1.0 19959:1.0 
1.0 10458:1.0 
1.0 1414:1.0 3411:1.0 8344:1.0 15046:1.0 
1.0 570:1.0 570:1.0 1000:1.0 2034:1.0 2266:1.0 3411:1.0 10419:1.0 12403:1.0 13005:1.0 14893:1.0 17991:1.0 20536:1.0 20536:1.0 21055:1.0 
1.0 2609:1.0 2745:1.0 5553:1.0 6517:1.0 14800:1.0 
1.0 41:1.0 633:1.0 784:1.0 19500:1.0 
0.3033350480938486 34:1.0 570:1.0 1060:1.0 2598:1.0 2598:1.0 2687:1.0 2847:1.0 8425:1.0 10476:1.0 10987:1.0 17347:1.0 18960:1.0 20751:1.0 
1.0 1120:1.0 9261:1.0 16277:1.0 18528:1.0 19534:1.0 
1.0 42:1.0 800:1.0 4969:1.0 5795:1.0 6775:1.0 9315:1.0 20338:1.0 
1.0 34:1.0 2532:1.0 2863:1.0 2863:1.0 6674:1.0 6873:1.0 7524:1.0 10627:1.0 11528:1.0 12548:1.0 12548:1.0 16846:1.0 17334:1.0 
0.1928607084382451 2816:1.0 3082:1.0 4847:1.0 15100:1.0 19798:1.0 
1.0 11182:1.0 16297:1.0 
1.0 2556:1.0 3749:1.0 5795:1.0 12568:1.0 20829:1.0 
1.0 2034:1.0 6517:1.0 13906:1.0 
0.17742499559337258 2796:1.0 2970:1.0 3239:1.0 3331:1.0 6931:1.0 10419:1.0 
0.22221016114791053 563:1.0 655:1.0 1874:1.0 6338:1.0 6397:1.0 8993:1.0 11464:1.0 12568:1.0 14276:1.0 14394:1.0 16327:1.0 17723:1.0 18140:1.0 
1.0 16709:1.0 17347:1.0 20526:1.0 
0.3057387134068789 6143:1.0 9101:1.0 9960:1.0 10017:1.0 10132:1.0 10458:1.0 11596:1.0 13707:1.0 14564:1.0 18128:1.0 
1.0 8484:1.0 11812:1.0 13199:1.0 
1.0 11376:1.0 16963:1.0 
0.14207612503012665 269:1.0 4969:1.0 7794:1.0 8640:1.0 19239:1.0 19912:1.0 20465:1.0 
1.0 2126:1.0 7524:1.0 8258:1.0 17319:1.0 17667:1.0 
0.9150976975557238 197:1.0 2365:1.0 4005:1.0 4575:1.0 4660:1.0 6875:1.0 10122:1.0 12548:1.0 18231:1.0 20067:1.0 20189:1.0 21055:1.0 
0.5233543552615774 570:1.0 747:1.0 1001:1.0 3159:1.0 6611:1.0 8113:1.0 9315:1.0 12550:1.0 12660:1.0 15944:1.0 18317:1.0 20541:1.0 
1.0 1000:1.0 2126:1.0 8093:1.0 17394:1.0 19395:1.0 19493:1.0 19511:1.0 
0.1794144647486669 9021:1.0 11397:1.0 19654:1.0 
0.05715080973798774 9478:1.0 10688:1.0 12962:1.0 15991:1.0 17069:1.0 17277:1.0 18160:1.0 19501:1.0 20800:1.0 
1.0 2970:1.0 4801:1.0 5634:1.0 8869:1.0 13203:1.0 13291:1.0 20723:1.0 
1.0 2598:1.0 3411:1.0 12548:1.0 15781:1.0 16388:1.0 
0.15983174509964482 2340:1.0 2722:1.0 2934:1.0 4946:1.0 4949:1.0 6788:1.0 7565:1.0 7582:1.0 8739:1.0 9105:1.0 10817:1.0 16282:1.0 20450:1.0 21056:1.0 
0.5441357456636009 3411:1.0 5269:1.0 6873:1.0 15692:1.0 19395:1.0 
0.7139531433823981 335:1.0 570:1.0 1165:1.0 1502:1.0 2258:1.0 5795:1.0 10199:1.0 15275:1.0 15792:1.0 16085:1.0 17154:1.0 17405:1.0 20067:1.0 
1.0 6486:1.0 11745:1.0 15038:1.0 17929:1.0 
1.0 6528:1.0 13291:1.0 15107:1.0 15437:1.0 
1.0 
0.2835052984849931 298:1.0 5049:1.0 7166:1.0 8767:1.0 13427:1.0 18690:1.0 
1.0 1394:1.0 2266:1.0 3764:1.0 5484:1.0 9832:1.0 12535:1.0 17359:1.0 
1.0 800:1.0 859:1.0 1286:1.0 1414:1.0 2126:1.0 2126:1.0 3411:1.0 3411:1.0 3558:1.0 3774:1.0 4583:1.0 8983:1.0 13044:1.0 15347:1.0 15361:1.0 17667:1.0 19395:1.0 20439:1.0 
0.41216768776355367 7091:1.0 8093:1.0 13714:1.0 13824:1.0 16229:1.0 
1.0 570:1.0 2429:1.0 4801:1.0 8840:1.0 14148:1.0 14605:1.0 18690:1.0 20001:1.0 
1.0 1414:1.0 1510:1.0 2581:1.0 6039:1.0 12403:1.0 
1.0 19959:1.0 
1.0 34:1.0 570:1.0 5634:1.0 6528:1.0 7524:1.0 12548:1.0 12568:1.0 18747:1.0 
1.0 2970:1.0 6598:1.0 6598:1.0 8145:1.0 8145:1.0 9857:1.0 11279:1.0 13933:1.0 15894:1.0 18011:1.0 
0.40409972772402764 4829:1.0 6517:1.0 8145:1.0 15432:1.0 
0.14241907638943532 1909:1.0 11376:1.0 20752:1.0 
1.0 4504:1.0 11949:1.0 18593:1.0 20610:1.0 
0.5049136553643785 3991:1.0 5875:1.0 8200:1.0 9342:1.0 11517:1.0 13912:1.0 14595:1.0 15043:1.0 
1.0 3531:1.0 4044:1.0 16532:1.0 18315:1.0 19304:1.0 
0.7140448399732744 1951:1.0 4161:1.0 4587:1.0 6873:1.0 15894:1.0 
1.0 2266:1.0 7361:1.0 
1.0 2698:1.0 5702:1.0 8070:1.0 13203:1.0 13435:1.0 14541:1.0 
1.0 775:1.0 1174:1.0 2276:1.0 6857:1.0 7682:1.0 14148:1.0 14247:1.0 14247:1.0 16709:1.0 16714:1.0 17118:1.0 19533:1.0 
1.0 8787:1.0 12548:1.0 13203:1.0 14247:1.0 17638:1.0 20536:1.0 
0.7371251025525289 936:1.0 2395:1.0 2880:1.0 12375:1.0 13707:1.0 16504:1.0 19293:1.0 
0.7883443588650745 2260:1.0 12127:1.0 
0.6393313811175481 809:1.0 6545:1.0 13311:1.0 13435:1.0 
1.0 19503:1.0 
1.0 2598:1.0 9570:1.0 10458:1.0 10681:1.0 12971:1.0 19380:1.0 
1.0 3531:1.0 6674:1.0 
1.0 7675:1.0 19304:1.0 
1.0 2785:1.0 3411:1.0 9601:1.0 16504:1.0 16709:1.0 
1.0 3630:1.0 9301:1.0 15894:1.0 
0.9237619300824802 6893:1.0 7798:1.0 13203:1.0 13217:1.0 14605:1.0 16313:1.0 
0.016716971855260384 536:1.0 4808:1.0 5199:1.0 20019:1.0 20632:1.0 
1.0 2296:1.0 5345:1.0 16829:1.0 
1.0 3814:1.0 3814:1.0 4969:1.0 6517:1.0 8685:1.0 11277:1.0 19533:1.0 20526:1.0 
0.5253435650897121 3479:1.0 6775:1.0 10255:1.0 
0.17633904973679163 269:1.0 442:1.0 1000:1.0 10928:1.0 11954:1.0 11962:1.0 16361:1.0 17347:1.0 
0.417252196570718 169:1.0 5172:1.0 13711:1.0 17263:1.0 19484:1.0 
0.6965578915414963 460:1.0 2698:1.0 3662:1.0 4957:1.0 6623:1.0 7981:1.0 16798:1.0 20884:1.0 20976:1.0 
1.0 15868:1.0 19276:1.0 20162:1.0 
1.0 1000:1.0 11059:1.0 11747:1.0 
1.0 3814:1.0 3922:1.0 10702:1.0 14468:1.0 15781:1.0 
0.6104594118357706 2785:1.0 3665:1.0 9372:1.0 16709:1.0 
1.0 3748:1.0 4583:1.0 6594:1.0 7996:1.0 15038:1.0 15781:1.0 16010:1.0 16104:1.0 19304:1.0 19380:1.0 20942:1.0 
0.22121060805799292 753:1.0 4257:1.0 12356:1.0 13792:1.0 
1.0 859:1.0 1067:1.0 2698:1.0 3055:1.0 7051:1.0 10225:1.0 19958:1.0 20106:1.0 
0.8340765212066359 714:1.0 12548:1.0 12568:1.0 14317:1.0 15258:1.0 18115:1.0 
0.24363416969960833 546:1.0 4969:1.0 8425:1.0 15038:1.0 
1.0 3411:1.0 10458:1.0 
1.0 
1.0 775:1.0 6519:1.0 9220:1.0 10740:1.0 12215:1.0 13291:1.0 13707:1.0 13933:1.0 20067:1.0 20142:1.0 
1.0 4977:1.0 11182:1.0 15941:1.0 
1.0 13217:1.0 17199:1.0 
1.0 775:1.0 2266:1.0 13435:1.0 16709:1.0 
1.0 33:1.0 37:1.0 39:1.0 3531:1.0 10138:1.0 13199:1.0 13273:1.0 
1.0 570:1.0 1000:1.0 1103:1.0 2785:1.0 3531:1.0 4257:1.0 6039:1.0 17994:1.0 19511:1.0 20067:1.0 
1.0 125:1.0 570:1.0 2970:1.0 3411:1.0 8339:1.0 10538:1.0 12916:1.0 13273:1.0 13435:1.0 16177:1.0 16196:1.0 
0.08632187418383512 633:1.0 11954:1.0 13531:1.0 14002:1.0 17147:1.0 17518:1.0 20636:1.0 
1.0 
1.0 12568:1.0 15434:1.0 18266:1.0 
1.0 1286:1.0 2598:1.0 3814:1.0 6528:1.0 13203:1.0 13959:1.0 13959:1.0 
0.8138257455365514 3558:1.0 4552:1.0 4552:1.0 6873:1.0 7455:1.0 8370:1.0 9601:1.0 12208:1.0 12375:1.0 
1.0 10856:1.0 14468:1.0 
1.0 800:1.0 4517:1.0 10283:1.0 
1.0 
1.0 1716:1.0 7091:1.0 11445:1.0 11641:1.0 15437:1.0 17347:1.0 17682:1.0 17929:1.0 20473:1.0 
0.17237333146543882 2071:1.0 3724:1.0 4583:1.0 7073:1.0 9071:1.0 11300:1.0 15941:1.0 16171:1.0 19918:1.0 20115:1.0 20842:1.0 
0.34914007975362843 1671:1.0 2501:1.0 7919:1.0 13291:1.0 17665:1.0 
0.9180223857511107 775:1.0 10597:1.0 13791:1.0 17249:1.0 19304:1.0 
1.0 799:1.0 2300:1.0 19316:1.0 21057:1.0 
0.6771701955170628 3531:1.0 9898:1.0 11588:1.0 18565:1.0 20771:1.0 
1.0 3411:1.0 13906:1.0 
1.0 8449:1.0 19481:1.0 20987:1.0 
0.22322840724013607 169:1.0 4577:1.0 5373:1.0 8840:1.0 11978:1.0 13618:1.0 13906:1.0 14764:1.0 15117:1.0 18513:1.0 19152:1.0 19407:1.0 
1.0 3411:1.0 6857:1.0 9569:1.0 12107:1.0 15446:1.0 16709:1.0 
1.0 889:1.0 8236:1.0 
1.0 714:1.0 2855:1.0 11445:1.0 12548:1.0 
0.7537104672219684 11300:1.0 18123:1.0 19380:1.0 20734:1.0 
0.02504352631683293 2691:1.0 3373:1.0 3894:1.0 
0.026056448357431056 534:1.0 8344:1.0 10283:1.0 10458:1.0 12208:1.0 12375:1.0 15427:1.0 19336:1.0 19501:1.0 
1.0 
1.0 2970:1.0 3910:1.0 15446:1.0 15781:1.0 
0.3992312134782925 2435:1.0 4646:1.0 5342:1.0 12554:1.0 13217:1.0 13291:1.0 15209:1.0 16928:1.0 18929:1.0 19404:1.0 19892:1.0 
1.0 1571:1.0 5375:1.0 7784:1.0 9601:1.0 10796:1.0 11697:1.0 12568:1.0 13312:1.0 15894:1.0 
1.0 9786:1.0 15941:1.0 
1.0 17023:1.0 18039:1.0 20448:1.0 
1.0 
0.7691757170805127 2715:1.0 3726:1.0 19981:1.0 
1.0 14605:1.0 16018:1.0 
0.0331365470108339 1753:1.0 2761:1.0 2807:1.0 4954:1.0 5484:1.0 8408:1.0 9013:1.0 9103:1.0 12548:1.0 14553:1.0 
1.0 10458:1.0 
1.0 12263:1.0 15859:1.0 20536:1.0 
1.0 570:1.0 1275:1.0 4969:1.0 6898:1.0 16709:1.0 20526:1.0 
0.30786676788995765 2506:1.0 7422:1.0 15593:1.0 16280:1.0 
0.6633032044918239 3411:1.0 8425:1.0 10014:1.0 16882:1.0 19316:1.0 20841:1.0 
1.0 7524:1.0 
1.0 1020:1.0 2107:1.0 3411:1.0 11876:1.0 18046:1.0 20825:1.0 
1.0 1051:1.0 6721:1.0 13203:1.0 
1.0 3767:1.0 3985:1.0 8906:1.0 10262:1.0 10540:1.0 11388:1.0 13312:1.0 15670:1.0 17927:1.0 
0.27436490534208263 8240:1.0 10750:1.0 11376:1.0 12764:1.0 16010:1.0 
1.0 3037:1.0 
1.0 2922:1.0 8419:1.0 11745:1.0 
0.0809981695101859 1820:1.0 3248:1.0 4363:1.0 5046:1.0 9966:1.0 9966:1.0 10627:1.0 10642:1.0 13291:1.0 18528:1.0 19661:1.0 
1.0 11224:1.0 19233:1.0 
1.0 1927:1.0 4969:1.0 6517:1.0 13906:1.0 16814:1.0 18039:1.0 19395:1.0 
0.9541932180745148 11365:1.0 12912:1.0 15432:1.0 15432:1.0 15432:1.0 16040:1.0 16807:1.0 17282:1.0 
0.2617059476130608 9712:1.0 
0.3887616877132283 34:1.0 1951:1.0 2022:1.0 4242:1.0 5021:1.0 6471:1.0 12568:1.0 14054:1.0 15593:1.0 17929:1.0 18554:1.0 20600:1.0 
1.0 19445:1.0 
1.0 2019:1.0 2386:1.0 4939:1.0 9483:1.0 11388:1.0 15370:1.0 15546:1.0 20067:1.0 
0.2940947639166045 685:1.0 7524:1.0 18432:1.0 19217:1.0 
1.0 16233:1.0 
1.0 2970:1.0 9857:1.0 11279:1.0 12172:1.0 14469:1.0 15894:1.0 18910:1.0 20526:1.0 
0.536963811253485 874:1.0 2305:1.0 2894:1.0 3411:1.0 3656:1.0 7085:1.0 8344:1.0 8425:1.0 9222:1.0 9553:1.0 10126:1.0 13217:1.0 13675:1.0 18016:1.0 19304:1.0 
0.10427862367714583 1913:1.0 6558:1.0 12149:1.0 15895:1.0 16504:1.0 17109:1.0 17929:1.0 
0.06632821740871878 1102:1.0 2431:1.0 12892:1.0 15894:1.0 20032:1.0 
0.7761632357114803 269:1.0 6519:1.0 7428:1.0 8245:1.0 15276:1.0 17899:1.0 
0.5559308876965913 4831:1.0 18541:1.0 
1.0 
0.968074642453104 478:1.0 2609:1.0 3698:1.0 6611:1.0 11300:1.0 15542:1.0 
1.0 5240:1.0 10419:1.0 11745:1.0 16709:1.0 17667:1.0 
1.0 1062:1.0 3595:1.0 12017:1.0 12548:1.0 14268:1.0 15501:1.0 
1.0 1446:1.0 2880:1.0 14192:1.0 15497:1.0 
0.19837951777696117 1852:1.0 2469:1.0 2860:1.0 3239:1.0 3612:1.0 8991:1.0 9315:1.0 11388:1.0 14538:1.0 21055:1.0 
0.21283624216867228 1510:1.0 2763:1.0 3531:1.0 4973:1.0 6039:1.0 8642:1.0 9712:1.0 10271:1.0 18231:1.0 20067:1.0 
1.0 1510:1.0 2126:1.0 3152:1.0 3411:1.0 10451:1.0 12086:1.0 12734:1.0 14089:1.0 20979:1.0 
1.0 6174:1.0 8093:1.0 8862:1.0 9986:1.0 10979:1.0 11277:1.0 
1.0 693:1.0 2059:1.0 14444:1.0 15781:1.0 15894:1.0 
1.0 10693:1.0 15941:1.0 16042:1.0 17043:1.0 
1.0 7925:1.0 16736:1.0 
0.33329429341557515 5570:1.0 7524:1.0 9166:1.0 12568:1.0 15941:1.0 
0.550233096944034 2126:1.0 2266:1.0 10681:1.0 11685:1.0 12467:1.0 15781:1.0 17577:1.0 17787:1.0 17833:1.0 18117:1.0 18117:1.0 19122:1.0 
1.0 570:1.0 2266:1.0 2266:1.0 5373:1.0 14041:1.0 16709:1.0 17667:1.0 18623:1.0 
1.0 2793:1.0 
1.0 16363:1.0 
0.6332150749482015 182:1.0 2787:1.0 6519:1.0 13223:1.0 14161:1.0 
1.0 3521:1.0 20254:1.0 
1.0 34:1.0 633:1.0 2970:1.0 5484:1.0 6142:1.0 10292:1.0 11464:1.0 13217:1.0 19395:1.0 19533:1.0 
1.0 1414:1.0 13291:1.0 15894:1.0 17994:1.0 
1.0 8153:1.0 
0.2221388282519549 1000:1.0 3035:1.0 3838:1.0 12187:1.0 17707:1.0 17864:1.0 18376:1.0 
1.0 2043:1.0 3061:1.0 3411:1.0 6190:1.0 12063:1.0 15692:1.0 
0.3078865724234038 2126:1.0 6873:1.0 8797:1.0 9927:1.0 13182:1.0 14442:1.0 17362:1.0 17662:1.0 19360:1.0 
0.4916984631847529 36:1.0 2965:1.0 4583:1.0 9214:1.0 11720:1.0 
1.0 1102:1.0 1414:1.0 2763:1.0 10627:1.0 12548:1.0 13707:1.0 
0.07708427567810103 8612:1.0 8685:1.0 15808:1.0 16226:1.0 20492:1.0 
0.6801607829595896 2366:1.0 2688:1.0 
1.0 51:1.0 1414:1.0 5778:1.0 8159:1.0 8677:1.0 
0.5800108603896332 24:1.0 800:1.0 2251:1.0 
1.0 775:1.0 6431:1.0 6517:1.0 11527:1.0 
0.4982466735960463 2260:1.0 3411:1.0 5173:1.0 5634:1.0 8901:1.0 9461:1.0 14513:1.0 14867:1.0 17518:1.0 
1.0 2745:1.0 3831:1.0 8335:1.0 
0.34426853718841743 714:1.0 2249:1.0 2320:1.0 11517:1.0 13203:1.0 13587:1.0 17037:1.0 18115:1.0 20061:1.0 
1.0 5373:1.0 18593:1.0 
1.0 2598:1.0 14358:1.0 18690:1.0 
1.0 1262:1.0 1414:1.0 6835:1.0 8408:1.0 10014:1.0 12462:1.0 13435:1.0 19503:1.0 
1.0 9569:1.0 14469:1.0 
1.0 647:1.0 1068:1.0 2322:1.0 8339:1.0 10458:1.0 20106:1.0 20942:1.0 
0.4906582947414202 77:1.0 261:1.0 3455:1.0 4506:1.0 15432:1.0 
1.0 19959:1.0 
1.0 859:1.0 10531:1.0 12926:1.0 13759:1.0 
1.0 1414:1.0 4467:1.0 15894:1.0 17577:1.0 
1.0 10460:1.0 13566:1.0 13875:1.0 
1.0 
1.0 2266:1.0 5634:1.0 8425:1.0 14326:1.0 21009:1.0 
0.1652623164389085 2447:1.0 2447:1.0 5928:1.0 7010:1.0 7290:1.0 8408:1.0 20349:1.0 
0.46354374562850176 3830:1.0 3830:1.0 
0.1494496484745897 25:1.0 25:1.0 1060:1.0 1375:1.0 1510:1.0 1753:1.0 1856:1.0 1856:1.0 11182:1.0 11342:1.0 12761:1.0 16714:1.0 17112:1.0 18348:1.0 
0.3875282411525939 931:1.0 2912:1.0 3411:1.0 4969:1.0 6240:1.0 13291:1.0 13423:1.0 13423:1.0 13423:1.0 17667:1.0 
1.0 12548:1.0 13203:1.0 15781:1.0 16388:1.0 
1.0 2505:1.0 
0.004252810894142433 1975:1.0 2750:1.0 2913:1.0 3101:1.0 7035:1.0 8177:1.0 8177:1.0 8242:1.0 8242:1.0 15488:1.0 
0.2503964728770999 8176:1.0 10681:1.0 12211:1.0 
1.0 2447:1.0 3985:1.0 5070:1.0 6517:1.0 14469:1.0 16709:1.0 16709:1.0 20526:1.0 
0.7096523696524667 245:1.0 442:1.0 2598:1.0 4254:1.0 7079:1.0 8344:1.0 11907:1.0 12572:1.0 12763:1.0 15806:1.0 16113:1.0 
1.0 4161:1.0 4166:1.0 
1.0 570:1.0 2266:1.0 8484:1.0 10458:1.0 11388:1.0 12403:1.0 19304:1.0 
0.07342793432337268 3443:1.0 7524:1.0 11850:1.0 13291:1.0 15432:1.0 15894:1.0 
1.0 775:1.0 6873:1.0 7524:1.0 19512:1.0 
0.43003571906486193 245:1.0 570:1.0 2266:1.0 9822:1.0 13435:1.0 13680:1.0 16709:1.0 16709:1.0 18960:1.0 20526:1.0 
0.02888976226428969 3384:1.0 7852:1.0 10424:1.0 14017:1.0 15009:1.0 
1.0 36:1.0 570:1.0 570:1.0 3662:1.0 8906:1.0 13199:1.0 
1.0 244:1.0 570:1.0 1414:1.0 3411:1.0 9434:1.0 9586:1.0 11325:1.0 13203:1.0 17240:1.0 20610:1.0 
1.0 633:1.0 3526:1.0 18536:1.0 
1.0 7524:1.0 7524:1.0 10106:1.0 11639:1.0 16010:1.0 19881:1.0 
1.0 10545:1.0 12568:1.0 
1.0 6517:1.0 9569:1.0 11365:1.0 14148:1.0 19407:1.0 
1.0 34:1.0 1115:1.0 15941:1.0 16709:1.0 20526:1.0 
1.0 
0.4175968704848033 2553:1.0 4417:1.0 8624:1.0 13906:1.0 14346:1.0 15437:1.0 
1.0 1414:1.0 2272:1.0 8093:1.0 14469:1.0 
1.0 526:1.0 570:1.0 2745:1.0 6176:1.0 6578:1.0 10839:1.0 13618:1.0 14469:1.0 20526:1.0 
0.6035335501615896 655:1.0 2366:1.0 2785:1.0 4583:1.0 6517:1.0 10681:1.0 17408:1.0 17667:1.0 
1.0 3558:1.0 4546:1.0 12208:1.0 12375:1.0 12548:1.0 13309:1.0 14469:1.0 17518:1.0 
1.0 570:1.0 6623:1.0 11376:1.0 
1.0 2266:1.0 2970:1.0 11812:1.0 
1.0 2598:1.0 6873:1.0 6873:1.0 7195:1.0 13618:1.0 
1.0 1134:1.0 5484:1.0 11745:1.0 
1.0 3411:1.0 15941:1.0 
1.0 1903:1.0 3558:1.0 3572:1.0 6255:1.0 8480:1.0 9222:1.0 13291:1.0 19380:1.0 19534:1.0 20511:1.0 
0.0316685494873822 2698:1.0 5452:1.0 10371:1.0 11172:1.0 11512:1.0 13034:1.0 14605:1.0 15315:1.0 15432:1.0 20722:1.0 
0.5009027434632366 980:1.0 1394:1.0 2222:1.0 7027:1.0 7503:1.0 9461:1.0 10796:1.0 12068:1.0 14135:1.0 15050:1.0 16934:1.0 20823:1.0 
0.5772587564916153 1186:1.0 6347:1.0 10248:1.0 10805:1.0 
1.0 2266:1.0 4161:1.0 7524:1.0 8646:1.0 9301:1.0 13620:1.0 13883:1.0 19493:1.0 
1.0 4044:1.0 14468:1.0 
1.0 11300:1.0 11483:1.0 20642:1.0 
0.41052768804720496 2266:1.0 8162:1.0 8965:1.0 14469:1.0 20526:1.0 
1.0 3607:1.0 10545:1.0 11745:1.0 20918:1.0 
0.3982294706919909 1510:1.0 3196:1.0 3985:1.0 8408:1.0 
0.3324994537312807 1987:1.0 2252:1.0 3472:1.0 4972:1.0 14694:1.0 19380:1.0 
0.03794728250275216 1986:1.0 2451:1.0 13203:1.0 13291:1.0 13736:1.0 16004:1.0 
0.7966501647625105 2296:1.0 6517:1.0 8947:1.0 9443:1.0 10276:1.0 11254:1.0 17347:1.0 
0.7987014646259059 10734:1.0 20683:1.0 
0.9445915498072281 386:1.0 1060:1.0 3122:1.0 
1.0 2970:1.0 9569:1.0 14469:1.0 
0.7831904496850998 471:1.0 491:1.0 10839:1.0 
0.36652249288894767 5049:1.0 9542:1.0 11696:1.0 15500:1.0 
1.0 1769:1.0 1997:1.0 4969:1.0 18044:1.0 
1.0 17911:1.0 
0.4007292063298721 1358:1.0 3055:1.0 9985:1.0 19551:1.0 
0.8958934785684897 13291:1.0 13372:1.0 13589:1.0 15038:1.0 18956:1.0 
0.5230690223588169 633:1.0 1000:1.0 2335:1.0 2553:1.0 7058:1.0 9570:1.0 
0.9393883384244042 6089:1.0 11745:1.0 
1.0 
0.01748313851920135 633:1.0 2244:1.0 3851:1.0 8234:1.0 11998:1.0 19500:1.0 20459:1.0 
1.0 14863:1.0 17680:1.0 
0.0861138965625539 34:1.0 2638:1.0 3831:1.0 11745:1.0 14265:1.0 14815:1.0 14892:1.0 15409:1.0 15707:1.0 
0.09680504860214681 3411:1.0 3450:1.0 6638:1.0 18221:1.0 
1.0 15795:1.0 
0.2811004942289127 859:1.0 4801:1.0 8501:1.0 8546:1.0 13934:1.0 16036:1.0 20682:1.0 
1.0 12548:1.0 
0.4764649992123965 5753:1.0 12568:1.0 
0.1015118400771904 1313:1.0 5963:1.0 16399:1.0 18326:1.0 19479:1.0 
1.0 1414:1.0 3526:1.0 7941:1.0 13036:1.0 15894:1.0 19307:1.0 20106:1.0 
1.0 15446:1.0 20526:1.0 
0.31073940209329726 2970:1.0 8735:1.0 13686:1.0 14473:1.0 
1.0 3531:1.0 10545:1.0 10625:1.0 12773:1.0 
1.0 1118:1.0 6227:1.0 12403:1.0 16327:1.0 16504:1.0 18536:1.0 
0.5133883297791823 3411:1.0 4037:1.0 6873:1.0 10458:1.0 11588:1.0 15894:1.0 
1.0 3411:1.0 3894:1.0 7537:1.0 9091:1.0 12557:1.0 16709:1.0 19865:1.0 
0.6517508770892593 2199:1.0 2199:1.0 2308:1.0 2552:1.0 2982:1.0 14468:1.0 
0.8012537298665631 2266:1.0 2266:1.0 3572:1.0 3814:1.0 5457:1.0 16709:1.0 16709:1.0 16709:1.0 16846:1.0 21055:1.0 
0.030822917958882857 2249:1.0 2266:1.0 2581:1.0 5046:1.0 8304:1.0 8707:1.0 12554:1.0 13291:1.0 17518:1.0 20723:1.0 
1.0 12734:1.0 18511:1.0 
0.8275730815587818 247:1.0 2592:1.0 3061:1.0 4972:1.0 11388:1.0 11531:1.0 13424:1.0 
0.44232606288097415 1386:1.0 11784:1.0 12565:1.0 
1.0 1510:1.0 5691:1.0 9881:1.0 
1.0 12568:1.0 17308:1.0 
1.0 412:1.0 6517:1.0 12109:1.0 12155:1.0 12670:1.0 16014:1.0 18593:1.0 
1.0 
0.6581612433590288 1204:1.0 4187:1.0 7521:1.0 10636:1.0 11003:1.0 11614:1.0 15046:1.0 17526:1.0 17888:1.0 18098:1.0 19265:1.0 19265:1.0 20536:1.0 
0.9383476385865755 2266:1.0 4566:1.0 4969:1.0 11332:1.0 12734:1.0 12734:1.0 16829:1.0 20723:1.0 
1.0 8093:1.0 17667:1.0 20106:1.0 
1.0 8093:1.0 8694:1.0 9886:1.0 13203:1.0 19395:1.0 
0.6216368382908886 1225:1.0 5896:1.0 11473:1.0 
0.5495781082758948 2407:1.0 2475:1.0 14358:1.0 19479:1.0 
1.0 285:1.0 1000:1.0 2126:1.0 2266:1.0 4660:1.0 4969:1.0 11802:1.0 13618:1.0 17643:1.0 18366:1.0 
0.5887063017375628 33:1.0 3001:1.0 3258:1.0 3342:1.0 9898:1.0 14469:1.0 
0.6643138316498483 2266:1.0 3763:1.0 14853:1.0 14944:1.0 14944:1.0 19239:1.0 20106:1.0 20106:1.0 20439:1.0 20473:1.0 
1.0 34:1.0 2395:1.0 3521:1.0 4108:1.0 4889:1.0 6835:1.0 
0.29220396456039716 246:1.0 800:1.0 1119:1.0 2266:1.0 6079:1.0 12912:1.0 19177:1.0 
0.024087518896503443 362:1.0 6684:1.0 17475:1.0 
0.5671968652220496 859:1.0 4969:1.0 11376:1.0 16737:1.0 
0.5424934324615918 45:1.0 848:1.0 1823:1.0 1823:1.0 2043:1.0 2281:1.0 2281:1.0 8067:1.0 9045:1.0 17778:1.0 18435:1.0 
1.0 13291:1.0 
1.0 1071:1.0 1502:1.0 7682:1.0 13244:1.0 14069:1.0 14694:1.0 15975:1.0 
1.0 3991:1.0 10839:1.0 16085:1.0 
0.47169509605404536 383:1.0 937:1.0 4160:1.0 4801:1.0 5634:1.0 8145:1.0 13016:1.0 16326:1.0 17208:1.0 19304:1.0 19395:1.0 
1.0 2126:1.0 3662:1.0 12548:1.0 15781:1.0 16388:1.0 18448:1.0 
1.0 4939:1.0 
1.0 536:1.0 671:1.0 1414:1.0 2745:1.0 3369:1.0 10531:1.0 13291:1.0 19534:1.0 
1.0 16050:1.0 19574:1.0 
0.7406879960900016 2266:1.0 2767:1.0 16618:1.0 17962:1.0 18856:1.0 20823:1.0 
1.0 634:1.0 
1.0 244:1.0 4299:1.0 10942:1.0 
0.6702179095676606 6573:1.0 12402:1.0 15104:1.0 19481:1.0 
1.0 8093:1.0 14456:1.0 20106:1.0 
1.0 570:1.0 2597:1.0 6873:1.0 9301:1.0 11300:1.0 12403:1.0 14469:1.0 20832:1.0 
1.0 3411:1.0 8196:1.0 13203:1.0 14469:1.0 19395:1.0 
1.0 
0.9572152601884241 2266:1.0 5029:1.0 5142:1.0 7524:1.0 19929:1.0 
0.20871962416866122 2553:1.0 5073:1.0 6519:1.0 6847:1.0 9166:1.0 11283:1.0 15979:1.0 17518:1.0 19481:1.0 
0.042580379906848494 2019:1.0 4799:1.0 6281:1.0 7079:1.0 12315:1.0 13292:1.0 13427:1.0 15894:1.0 16018:1.0 16029:1.0 
1.0 2745:1.0 11799:1.0 13203:1.0 15113:1.0 19395:1.0 19511:1.0 
1.0 7211:1.0 10681:1.0 12568:1.0 12764:1.0 16904:1.0 
1.0 2148:1.0 4969:1.0 11376:1.0 
1.0 1378:1.0 1927:1.0 3516:1.0 10647:1.0 13203:1.0 15941:1.0 16479:1.0 19501:1.0 20735:1.0 
1.0 36:1.0 6517:1.0 6722:1.0 19371:1.0 
1.0 667:1.0 667:1.0 8758:1.0 
0.6271269246832836 1115:1.0 3411:1.0 3814:1.0 6870:1.0 13203:1.0 13618:1.0 13618:1.0 16709:1.0 20526:1.0 
1.0 1510:1.0 1662:1.0 2126:1.0 3411:1.0 5046:1.0 5254:1.0 11815:1.0 12548:1.0 
1.0 2022:1.0 3239:1.0 6471:1.0 7493:1.0 8639:1.0 14797:1.0 19511:1.0 
0.6727714745430018 1414:1.0 1789:1.0 2034:1.0 3806:1.0 5027:1.0 7462:1.0 8906:1.0 9632:1.0 9898:1.0 11355:1.0 12085:1.0 12548:1.0 13596:1.0 20318:1.0 
1.0 13632:1.0 
1.0 582:1.0 12002:1.0 15108:1.0 15894:1.0 18838:1.0 
1.0 10460:1.0 11054:1.0 11182:1.0 
0.7151752975374484 1598:1.0 2698:1.0 5122:1.0 8145:1.0 16231:1.0 
1.0 10236:1.0 11288:1.0 12548:1.0 16327:1.0 16650:1.0 
1.0 2126:1.0 3486:1.0 5702:1.0 6893:1.0 7524:1.0 8685:1.0 13883:1.0 17176:1.0 
1.0 1912:1.0 2713:1.0 4040:1.0 13553:1.0 14041:1.0 17765:1.0 
1.0 1510:1.0 2212:1.0 2287:1.0 2745:1.0 4969:1.0 6986:1.0 9301:1.0 10566:1.0 19395:1.0 19479:1.0 
0.8471559199205383 8073:1.0 9601:1.0 15894:1.0 16709:1.0 20173:1.0 
0.2255566841558567 227:1.0 570:1.0 790:1.0 1480:1.0 3991:1.0 10458:1.0 10712:1.0 12500:1.0 12921:1.0 20536:1.0 
1.0 8833:1.0 8869:1.0 13199:1.0 14185:1.0 19467:1.0 20251:1.0 
1.0 6519:1.0 11277:1.0 20196:1.0 
1.0 245:1.0 5692:1.0 9898:1.0 15763:1.0 20771:1.0 
0.6264453657077247 1165:1.0 8408:1.0 10215:1.0 10545:1.0 16816:1.0 
1.0 12134:1.0 15894:1.0 
1.0 
1.0 33:1.0 1502:1.0 1871:1.0 8344:1.0 10796:1.0 13148:1.0 13856:1.0 17723:1.0 18447:1.0 
0.9809084309676008 37:1.0 125:1.0 570:1.0 800:1.0 3831:1.0 6775:1.0 8646:1.0 9969:1.0 11216:1.0 11978:1.0 12085:1.0 12403:1.0 15466:1.0 15781:1.0 16388:1.0 17818:1.0 18291:1.0 20526:1.0 
1.0 489:1.0 1020:1.0 3531:1.0 
1.0 4037:1.0 8574:1.0 16361:1.0 16473:1.0 
1.0 2970:1.0 7628:1.0 15781:1.0 
1.0 570:1.0 1510:1.0 5634:1.0 9881:1.0 12201:1.0 14247:1.0 
1.0 2532:1.0 2532:1.0 2532:1.0 20541:1.0 
1.0 892:1.0 1060:1.0 1502:1.0 2866:1.0 7079:1.0 8074:1.0 9554:1.0 14074:1.0 16313:1.0 
1.0 2687:1.0 3698:1.0 6240:1.0 7885:1.0 8763:1.0 14069:1.0 14541:1.0 
0.7549006367962711 1169:1.0 1510:1.0 2759:1.0 9314:1.0 10283:1.0 14041:1.0 14957:1.0 20533:1.0 20829:1.0 
1.0 570:1.0 570:1.0 12548:1.0 13199:1.0 13199:1.0 13912:1.0 13912:1.0 
0.5994366830841794 1134:1.0 2753:1.0 6039:1.0 6142:1.0 9791:1.0 10545:1.0 11839:1.0 12039:1.0 13021:1.0 19150:1.0 19316:1.0 
1.0 7543:1.0 8093:1.0 11745:1.0 13199:1.0 13523:1.0 15432:1.0 
1.0 7769:1.0 10458:1.0 16829:1.0 17910:1.0 
0.40565607127521175 2763:1.0 2794:1.0 3337:1.0 7558:1.0 9161:1.0 20082:1.0 
1.0 3031:1.0 4909:1.0 6422:1.0 14266:1.0 14608:1.0 20526:1.0 
1.0 6578:1.0 8196:1.0 14469:1.0 18851:1.0 
0.44229833416985836 701:1.0 2851:1.0 6590:1.0 6877:1.0 
1.0 3189:1.0 4801:1.0 8501:1.0 16504:1.0 19425:1.0 
0.7473789895300328 269:1.0 2287:1.0 4902:1.0 8490:1.0 11526:1.0 11639:1.0 13427:1.0 
1.0 6078:1.0 19380:1.0 
1.0 12681:1.0 17096:1.0 
1.0 3931:1.0 7524:1.0 13273:1.0 13273:1.0 13997:1.0 16838:1.0 
1.0 3665:1.0 10458:1.0 14907:1.0 16798:1.0 17667:1.0 18221:1.0 20723:1.0 
1.0 10051:1.0 
1.0 1000:1.0 2880:1.0 5414:1.0 6519:1.0 6721:1.0 11483:1.0 12204:1.0 14653:1.0 15361:1.0 15593:1.0 16532:1.0 
0.8272974288659304 2756:1.0 2970:1.0 21093:1.0 
1.0 2698:1.0 15894:1.0 
0.520843632106269 1000:1.0 1820:1.0 2645:1.0 2645:1.0 2930:1.0 7491:1.0 7997:1.0 7997:1.0 12548:1.0 15546:1.0 16807:1.0 19407:1.0 20067:1.0 20394:1.0 
1.0 244:1.0 3173:1.0 9101:1.0 15432:1.0 
1.0 775:1.0 1414:1.0 1987:1.0 2266:1.0 2269:1.0 2335:1.0 3814:1.0 4972:1.0 8113:1.0 13084:1.0 14456:1.0 14923:1.0 15773:1.0 20726:1.0 
0.21436456911009327 377:1.0 2506:1.0 5454:1.0 6815:1.0 6873:1.0 13524:1.0 14541:1.0 14541:1.0 14541:1.0 14736:1.0 17893:1.0 
1.0 1000:1.0 2553:1.0 10531:1.0 10925:1.0 11376:1.0 13906:1.0 17518:1.0 
1.0 36:1.0 5783:1.0 10258:1.0 19741:1.0 20828:1.0 
0.5559353428686691 9592:1.0 15994:1.0 
0.2951331339322556 3031:1.0 6431:1.0 6568:1.0 11745:1.0 15593:1.0 17145:1.0 
0.13070400235169882 2266:1.0 3055:1.0 5441:1.0 9343:1.0 12548:1.0 15922:1.0 
1.0 2118:1.0 3239:1.0 8344:1.0 8364:1.0 
1.0 2711:1.0 3764:1.0 4801:1.0 5522:1.0 12684:1.0 17319:1.0 
0.4640770518814579 2266:1.0 5638:1.0 11349:1.0 13161:1.0 13268:1.0 
1.0 244:1.0 1000:1.0 3411:1.0 3894:1.0 4367:1.0 9879:1.0 15934:1.0 
1.0 45:1.0 633:1.0 8833:1.0 20461:1.0 
0.33868839458170896 2841:1.0 7652:1.0 9360:1.0 16892:1.0 18518:1.0 19426:1.0 
0.3598120068501147 2239:1.0 4630:1.0 13291:1.0 14041:1.0 17147:1.0 19755:1.0 
1.0 197:1.0 10028:1.0 16714:1.0 
0.8699798039771603 2598:1.0 8685:1.0 8765:1.0 9154:1.0 11791:1.0 11812:1.0 15076:1.0 15781:1.0 
0.4164477426474614 2419:1.0 2970:1.0 3411:1.0 17068:1.0 
0.08464906728453779 67:1.0 7919:1.0 8984:1.0 13203:1.0 
1.0 6255:1.0 8344:1.0 12129:1.0 15593:1.0 20526:1.0 
0.6513538024625168 5615:1.0 9039:1.0 9740:1.0 12375:1.0 16234:1.0 
0.20087669471802613 269:1.0 1978:1.0 2698:1.0 3831:1.0 13195:1.0 13632:1.0 14664:1.0 16036:1.0 18649:1.0 19395:1.0 
1.0 442:1.0 7941:1.0 15894:1.0 
1.0 6233:1.0 18536:1.0 
1.0 3097:1.0 3558:1.0 3648:1.0 
1.0 570:1.0 570:1.0 2148:1.0 8646:1.0 12403:1.0 
1.0 1542:1.0 8425:1.0 
1.0 1067:1.0 6519:1.0 12565:1.0 18275:1.0 18799:1.0 19493:1.0 
1.0 7080:1.0 11517:1.0 
0.2803570257355735 87:1.0 3411:1.0 6528:1.0 14469:1.0 
0.039034080512005236 605:1.0 1502:1.0 3411:1.0 5010:1.0 6519:1.0 13945:1.0 14319:1.0 16631:1.0 20942:1.0 
0.7518883885390664 503:1.0 3637:1.0 7137:1.0 15590:1.0 20245:1.0 20842:1.0 
0.12976243840095814 2573:1.0 3411:1.0 8196:1.0 8425:1.0 12315:1.0 13894:1.0 17700:1.0 19534:1.0 
0.03242862469405624 2034:1.0 3182:1.0 4563:1.0 6491:1.0 6594:1.0 7257:1.0 7664:1.0 11685:1.0 14108:1.0 14614:1.0 14866:1.0 20224:1.0 20786:1.0 
0.06797619819406679 633:1.0 3239:1.0 4206:1.0 
1.0 3985:1.0 4583:1.0 4677:1.0 6363:1.0 8093:1.0 10458:1.0 12548:1.0 14741:1.0 17277:1.0 20610:1.0 
0.41846260627999154 2266:1.0 5903:1.0 7153:1.0 14114:1.0 15661:1.0 20224:1.0 
0.8781132363526379 3662:1.0 8662:1.0 15859:1.0 
1.0 3531:1.0 6910:1.0 9067:1.0 13618:1.0 14541:1.0 14694:1.0 16010:1.0 17667:1.0 19217:1.0 
0.2548895751682599 4761:1.0 12257:1.0 14686:1.0 20829:1.0 
0.8712305971475641 1394:1.0 2337:1.0 5702:1.0 6840:1.0 11307:1.0 11745:1.0 12213:1.0 14469:1.0 17991:1.0 18071:1.0 18933:1.0 
0.7010503287940599 8638:1.0 
0.7486331673425267 1102:1.0 1102:1.0 13567:1.0 16807:1.0 19481:1.0 19691:1.0 20473:1.0 20726:1.0 
0.6478175682407776 2597:1.0 3411:1.0 7162:1.0 9645:1.0 13933:1.0 15742:1.0 
0.00509260033447819 216:1.0 269:1.0 775:1.0 6873:1.0 6873:1.0 7451:1.0 8093:1.0 9301:1.0 11344:1.0 19387:1.0 19387:1.0 
0.45506558142427506 2433:1.0 2944:1.0 13141:1.0 20526:1.0 
1.0 775:1.0 3239:1.0 13244:1.0 13435:1.0 13435:1.0 14469:1.0 16504:1.0 17667:1.0 19703:1.0 
1.0 12107:1.0 13261:1.0 13268:1.0 13881:1.0 
1.0 9:1.0 10458:1.0 21062:1.0 
1.0 7709:1.0 
1.0 961:1.0 10545:1.0 11176:1.0 
1.0 4450:1.0 6398:1.0 8036:1.0 9311:1.0 11812:1.0 12548:1.0 13203:1.0 14469:1.0 15792:1.0 
0.3506354412380313 7911:1.0 11925:1.0 13203:1.0 18536:1.0 20600:1.0 
0.27086411627290374 3775:1.0 13203:1.0 13203:1.0 15894:1.0 16571:1.0 16979:1.0 
0.6646255078061762 1486:1.0 1510:1.0 2585:1.0 3411:1.0 6480:1.0 7301:1.0 8344:1.0 13303:1.0 15751:1.0 19415:1.0 
0.9759949078200838 125:1.0 4969:1.0 8647:1.0 12548:1.0 15491:1.0 
1.0 570:1.0 4719:1.0 11376:1.0 11812:1.0 12548:1.0 13328:1.0 14247:1.0 
1.0 3667:1.0 3956:1.0 9586:1.0 12406:1.0 14469:1.0 20600:1.0 20610:1.0 
1.0 39:1.0 58:1.0 3531:1.0 15436:1.0 19380:1.0 
0.43107339194540734 3032:1.0 5740:1.0 10911:1.0 14405:1.0 19380:1.0 19534:1.0 
0.6300384221382906 1060:1.0 3733:1.0 9637:1.0 12218:1.0 
1.0 1542:1.0 11397:1.0 
1.0 4044:1.0 15941:1.0 
0.7743737337575041 1096:1.0 2995:1.0 6230:1.0 8537:1.0 8546:1.0 9222:1.0 11662:1.0 11737:1.0 19533:1.0 
1.0 3411:1.0 15692:1.0 17929:1.0 
1.0 1510:1.0 3521:1.0 4369:1.0 10531:1.0 10805:1.0 13291:1.0 15781:1.0 16236:1.0 18449:1.0 19307:1.0 
1.0 3671:1.0 7573:1.0 7691:1.0 13866:1.0 19395:1.0 
0.002307025553722268 6517:1.0 11812:1.0 14468:1.0 14743:1.0 18326:1.0 18326:1.0 
0.4305910011927701 6229:1.0 6517:1.0 8869:1.0 10812:1.0 10884:1.0 12548:1.0 14185:1.0 15705:1.0 16327:1.0 18528:1.0 
1.0 775:1.0 2691:1.0 8196:1.0 11735:1.0 15782:1.0 
0.012510044467510093 3411:1.0 3836:1.0 5330:1.0 5649:1.0 5649:1.0 8728:1.0 13435:1.0 15859:1.0 15941:1.0 16709:1.0 
1.0 
1.0 6431:1.0 
1.0 3531:1.0 5105:1.0 19959:1.0 
0.9827385635870893 125:1.0 245:1.0 879:1.0 5261:1.0 6519:1.0 10681:1.0 12568:1.0 12764:1.0 
1.0 39:1.0 6517:1.0 7051:1.0 8245:1.0 16504:1.0 20394:1.0 
0.09827695253600724 859:1.0 1598:1.0 7058:1.0 9166:1.0 12967:1.0 13245:1.0 17029:1.0 
1.0 6873:1.0 
0.37186884100588924 1394:1.0 7696:1.0 13618:1.0 18507:1.0 
1.0 3521:1.0 4939:1.0 4939:1.0 14469:1.0 
0.08173481329825853 3239:1.0 12241:1.0 13203:1.0 20561:1.0 
1.0 570:1.0 1378:1.0 2445:1.0 11388:1.0 17723:1.0 
0.32742910221705857 442:1.0 3411:1.0 4665:1.0 7742:1.0 13104:1.0 16723:1.0 19866:1.0 20439:1.0 
0.8843810357064947 2266:1.0 3211:1.0 8344:1.0 11445:1.0 14469:1.0 16709:1.0 18928:1.0 
0.440206778974363 2691:1.0 9570:1.0 17667:1.0 19533:1.0 19533:1.0 20254:1.0 
1.0 3872:1.0 11445:1.0 12548:1.0 12548:1.0 
0.8077068266036143 1361:1.0 18690:1.0 
0.5740543137014374 269:1.0 3155:1.0 9569:1.0 17549:1.0 
1.0 3411:1.0 6517:1.0 15941:1.0 16709:1.0 20106:1.0 
1.0 4586:1.0 11685:1.0 12548:1.0 17359:1.0 18786:1.0 18856:1.0 18914:1.0 19304:1.0 
0.5004715263742571 4778:1.0 5561:1.0 14041:1.0 20357:1.0 
1.0 3411:1.0 16709:1.0 
0.7499542373366735 7402:1.0 
1.0 6517:1.0 6611:1.0 7448:1.0 11182:1.0 12568:1.0 16807:1.0 
0.8042157806513336 570:1.0 1165:1.0 2148:1.0 7476:1.0 12403:1.0 13244:1.0 17765:1.0 19217:1.0 20642:1.0 
1.0 1165:1.0 6721:1.0 8906:1.0 
1.0 570:1.0 1598:1.0 5325:1.0 12375:1.0 17006:1.0 20536:1.0 
1.0 3411:1.0 11344:1.0 
1.0 17894:1.0 18690:1.0 18929:1.0 
0.163862512562263 2266:1.0 2365:1.0 7724:1.0 9881:1.0 14281:1.0 
0.1493267877300789 3704:1.0 3794:1.0 6642:1.0 9857:1.0 11660:1.0 14176:1.0 16327:1.0 18838:1.0 19445:1.0 
1.0 11182:1.0 11182:1.0 11445:1.0 12548:1.0 13428:1.0 
1.0 10839:1.0 16709:1.0 17861:1.0 21055:1.0 
0.09804937029968135 8436:1.0 12568:1.0 13933:1.0 15705:1.0 
0.5222958106789992 3637:1.0 4131:1.0 8070:1.0 13435:1.0 14394:1.0 20937:1.0 
1.0 1000:1.0 1165:1.0 3744:1.0 8833:1.0 11258:1.0 11978:1.0 12501:1.0 13235:1.0 
1.0 
0.08163480033333824 1000:1.0 2266:1.0 3516:1.0 4297:1.0 6873:1.0 9166:1.0 9301:1.0 12353:1.0 13685:1.0 13708:1.0 13906:1.0 21065:1.0 
1.0 3411:1.0 12568:1.0 13199:1.0 14041:1.0 15546:1.0 19395:1.0 20046:1.0 
0.9753844320898304 2266:1.0 4340:1.0 6502:1.0 
1.0 428:1.0 1414:1.0 2817:1.0 3282:1.0 9874:1.0 15894:1.0 
1.0 1631:1.0 1662:1.0 2745:1.0 3876:1.0 6469:1.0 11483:1.0 11978:1.0 13071:1.0 18901:1.0 
1.0 2598:1.0 12548:1.0 13291:1.0 13881:1.0 19380:1.0 19467:1.0 
1.0 1165:1.0 3744:1.0 6893:1.0 8991:1.0 9123:1.0 11300:1.0 12764:1.0 16010:1.0 20723:1.0 
0.3772164135957463 33:1.0 570:1.0 1866:1.0 2158:1.0 7080:1.0 8909:1.0 9847:1.0 12889:1.0 15144:1.0 18265:1.0 
1.0 1414:1.0 
1.0 
0.10123470346420822 936:1.0 2110:1.0 2429:1.0 3671:1.0 6517:1.0 12568:1.0 13618:1.0 14117:1.0 14148:1.0 14867:1.0 
1.0 1289:1.0 1510:1.0 13435:1.0 15038:1.0 19602:1.0 20602:1.0 
1.0 2020:1.0 5616:1.0 11388:1.0 11745:1.0 14791:1.0 
0.7905418406800788 641:1.0 5513:1.0 11745:1.0 
0.4651872791974353 1664:1.0 2970:1.0 8869:1.0 12205:1.0 18236:1.0 18695:1.0 
1.0 3531:1.0 4692:1.0 8245:1.0 8884:1.0 11279:1.0 13291:1.0 15796:1.0 16388:1.0 
0.29828763980042516 202:1.0 663:1.0 1517:1.0 3572:1.0 4561:1.0 11072:1.0 11745:1.0 11941:1.0 12568:1.0 13733:1.0 19804:1.0 
0.28416487776749066 570:1.0 8586:1.0 8642:1.0 10233:1.0 18513:1.0 
1.0 1000:1.0 1000:1.0 2020:1.0 3718:1.0 11812:1.0 14791:1.0 
1.0 10534:1.0 
1.0 2266:1.0 2970:1.0 5795:1.0 19316:1.0 
1.0 45:1.0 10283:1.0 
0.23283297667034486 7029:1.0 15711:1.0 19392:1.0 19586:1.0 
0.8417885901033889 15229:1.0 17126:1.0 20926:1.0 
1.0 7506:1.0 12403:1.0 14469:1.0 20967:1.0 
1.0 718:1.0 4552:1.0 16223:1.0 16954:1.0 19380:1.0 
0.20176976949606287 52:1.0 3831:1.0 18248:1.0 
0.8017776451497503 1965:1.0 13203:1.0 
0.9234638863336452 1165:1.0 7079:1.0 7524:1.0 8425:1.0 13649:1.0 16313:1.0 19534:1.0 20823:1.0 
0.06397927034568003 3239:1.0 4552:1.0 10563:1.0 10796:1.0 10796:1.0 13199:1.0 14751:1.0 19959:1.0 
1.0 1134:1.0 9570:1.0 
1.0 34:1.0 2598:1.0 2598:1.0 10458:1.0 13632:1.0 16816:1.0 19217:1.0 
0.6865553582571121 1057:1.0 3239:1.0 6545:1.0 8501:1.0 9166:1.0 10629:1.0 20636:1.0 
1.0 10540:1.0 
0.18212430303306454 34:1.0 34:1.0 36:1.0 402:1.0 1062:1.0 1062:1.0 1794:1.0 2121:1.0 2861:1.0 4595:1.0 7058:1.0 10401:1.0 12068:1.0 12236:1.0 13303:1.0 14676:1.0 20118:1.0 20448:1.0 20983:1.0 
1.0 2970:1.0 6517:1.0 12046:1.0 13435:1.0 17006:1.0 
1.0 12063:1.0 12063:1.0 13912:1.0 16085:1.0 17162:1.0 
1.0 3411:1.0 8484:1.0 
1.0 4969:1.0 13198:1.0 13435:1.0 
1.0 
1.0 808:1.0 3411:1.0 4939:1.0 
1.0 12568:1.0 
1.0 4969:1.0 6528:1.0 9101:1.0 11397:1.0 11723:1.0 20382:1.0 
0.248802729296547 566:1.0 2266:1.0 3749:1.0 6594:1.0 6970:1.0 11812:1.0 14469:1.0 15042:1.0 18513:1.0 18513:1.0 19407:1.0 19408:1.0 
1.0 3411:1.0 3526:1.0 4969:1.0 11745:1.0 14944:1.0 17638:1.0 
1.0 5009:1.0 6563:1.0 6893:1.0 10893:1.0 14469:1.0 
1.0 8991:1.0 9579:1.0 10458:1.0 14358:1.0 
1.0 4160:1.0 6255:1.0 12162:1.0 13686:1.0 16571:1.0 
0.8563146779288757 5970:1.0 10293:1.0 14276:1.0 
1.0 6517:1.0 6611:1.0 12558:1.0 
0.17207372476850724 3572:1.0 4583:1.0 6517:1.0 14540:1.0 14791:1.0 14840:1.0 17606:1.0 19759:1.0 
1.0 3558:1.0 6142:1.0 14965:1.0 19440:1.0 
0.7839016113352958 61:1.0 11986:1.0 12548:1.0 14551:1.0 19617:1.0 20828:1.0 
0.9382320839590574 570:1.0 570:1.0 3051:1.0 5254:1.0 9240:1.0 13435:1.0 20600:1.0 20600:1.0 
1.0 2698:1.0 6142:1.0 17475:1.0 
1.0 442:1.0 6528:1.0 12208:1.0 12375:1.0 17271:1.0 17723:1.0 19786:1.0 
1.0 2320:1.0 3061:1.0 12568:1.0 14035:1.0 
1.0 1000:1.0 2872:1.0 3814:1.0 11182:1.0 15781:1.0 20610:1.0 
0.7662665125735741 534:1.0 570:1.0 570:1.0 1394:1.0 2148:1.0 7948:1.0 11911:1.0 12548:1.0 13203:1.0 13856:1.0 14469:1.0 
1.0 775:1.0 3558:1.0 13117:1.0 14172:1.0 
1.0 19:1.0 6130:1.0 6517:1.0 6517:1.0 8245:1.0 13736:1.0 15108:1.0 20067:1.0 
1.0 633:1.0 2244:1.0 2745:1.0 3369:1.0 5547:1.0 5634:1.0 6873:1.0 15593:1.0 
0.68579634722726 570:1.0 1000:1.0 1102:1.0 3411:1.0 4969:1.0 5928:1.0 14872:1.0 21055:1.0 
1.0 12568:1.0 
1.0 1050:1.0 2250:1.0 2698:1.0 13711:1.0 
0.3705849637221494 8540:1.0 13131:1.0 19437:1.0 
1.0 244:1.0 3739:1.0 5122:1.0 6594:1.0 8242:1.0 11300:1.0 13435:1.0 16361:1.0 
0.23909535959498854 570:1.0 2698:1.0 4518:1.0 10796:1.0 12141:1.0 14944:1.0 17112:1.0 17112:1.0 20693:1.0 
0.3813680586059279 724:1.0 852:1.0 2336:1.0 2687:1.0 2978:1.0 4606:1.0 6882:1.0 6976:1.0 13330:1.0 15318:1.0 16884:1.0 19304:1.0 
1.0 
1.0 16085:1.0 16752:1.0 16997:1.0 20539:1.0 
1.0 442:1.0 3123:1.0 3239:1.0 6806:1.0 14031:1.0 14469:1.0 16817:1.0 19481:1.0 
1.0 4969:1.0 5204:1.0 11812:1.0 13435:1.0 15038:1.0 
0.588582684329543 2521:1.0 2687:1.0 2968:1.0 2973:1.0 10470:1.0 14069:1.0 14737:1.0 17639:1.0 17639:1.0 20450:1.0 
1.0 2335:1.0 10839:1.0 15291:1.0 
1.0 2126:1.0 4801:1.0 6517:1.0 6815:1.0 12568:1.0 
0.39872403940395174 3411:1.0 5513:1.0 9757:1.0 13113:1.0 15488:1.0 16327:1.0 20636:1.0 
0.2652428809943329 422:1.0 570:1.0 6200:1.0 8568:1.0 11401:1.0 12895:1.0 13203:1.0 14613:1.0 18833:1.0 19407:1.0 19500:1.0 21055:1.0 
1.0 20106:1.0 20936:1.0 
1.0 3698:1.0 4767:1.0 4769:1.0 5274:1.0 13203:1.0 
1.0 2392:1.0 3051:1.0 10498:1.0 15781:1.0 
0.3433658234698154 1001:1.0 3239:1.0 11760:1.0 12548:1.0 12917:1.0 13435:1.0 16361:1.0 
0.6401043170553694 1000:1.0 3971:1.0 7731:1.0 8013:1.0 9857:1.0 
1.0 14469:1.0 20526:1.0 
1.0 58:1.0 4607:1.0 9318:1.0 11745:1.0 
1.0 
0.2735847146393649 9144:1.0 10469:1.0 14456:1.0 15655:1.0 
0.5975771832580873 1542:1.0 2131:1.0 4205:1.0 12568:1.0 15361:1.0 18214:1.0 19848:1.0 20502:1.0 20541:1.0 
0.47586996199513354 3622:1.0 5484:1.0 12568:1.0 
1.0 570:1.0 3814:1.0 7079:1.0 10538:1.0 15446:1.0 15781:1.0 17667:1.0 17747:1.0 
1.0 4913:1.0 5108:1.0 9315:1.0 10799:1.0 13415:1.0 13816:1.0 14469:1.0 15763:1.0 18528:1.0 18999:1.0 
1.0 5081:1.0 17667:1.0 
0.03848116585849496 428:1.0 8359:1.0 11660:1.0 14656:1.0 15517:1.0 19159:1.0 
1.0 2126:1.0 8093:1.0 20106:1.0 
0.8954617316718105 1623:1.0 7771:1.0 9169:1.0 11074:1.0 11348:1.0 11348:1.0 11483:1.0 13291:1.0 15727:1.0 19717:1.0 
0.13697042936222695 1275:1.0 3455:1.0 3933:1.0 4435:1.0 5263:1.0 6278:1.0 8330:1.0 11483:1.0 12565:1.0 13522:1.0 13772:1.0 13970:1.0 15741:1.0 20231:1.0 
1.0 6517:1.0 15941:1.0 
0.11544755666118782 1168:1.0 3733:1.0 4055:1.0 4889:1.0 4889:1.0 7524:1.0 17668:1.0 
1.0 6358:1.0 6517:1.0 7996:1.0 13618:1.0 14358:1.0 15689:1.0 20443:1.0 20526:1.0 
1.0 9222:1.0 12568:1.0 15477:1.0 
0.22894667714934425 10070:1.0 13808:1.0 
0.5197731574422103 2841:1.0 4166:1.0 13553:1.0 13736:1.0 16014:1.0 17991:1.0 20501:1.0 
1.0 442:1.0 1165:1.0 3411:1.0 3744:1.0 3814:1.0 5254:1.0 11812:1.0 
1.0 3814:1.0 4969:1.0 8339:1.0 14154:1.0 16006:1.0 18519:1.0 
1.0 777:1.0 1120:1.0 1160:1.0 1414:1.0 1502:1.0 4055:1.0 12548:1.0 
1.0 3744:1.0 3833:1.0 8685:1.0 10458:1.0 10627:1.0 20610:1.0 
1.0 3279:1.0 10928:1.0 
1.0 1414:1.0 2126:1.0 3651:1.0 11812:1.0 13217:1.0 15894:1.0 
1.0 3667:1.0 9601:1.0 
1.0 9972:1.0 
0.6062262816420395 7075:1.0 10419:1.0 10647:1.0 13632:1.0 19102:1.0 19217:1.0 
1.0 6103:1.0 7140:1.0 8048:1.0 8138:1.0 9632:1.0 12315:1.0 20636:1.0 
1.0 33:1.0 3411:1.0 
1.0 5513:1.0 8449:1.0 16327:1.0 
0.9341237962551409 489:1.0 8339:1.0 12568:1.0 18731:1.0 
0.6920313683740278 1662:1.0 5484:1.0 8991:1.0 10545:1.0 11947:1.0 13291:1.0 
1.0 3053:1.0 9601:1.0 11685:1.0 11745:1.0 13217:1.0 15441:1.0 15593:1.0 17334:1.0 18791:1.0 20282:1.0 
0.05643756317987122 9164:1.0 15104:1.0 19407:1.0 
1.0 3192:1.0 3833:1.0 5254:1.0 6340:1.0 8671:1.0 13721:1.0 19380:1.0 19481:1.0 
0.5674416569164981 95:1.0 6519:1.0 7499:1.0 15941:1.0 18938:1.0 
0.8441288071313323 2251:1.0 7787:1.0 
0.11762823585802358 489:1.0 1394:1.0 2831:1.0 3831:1.0 8340:1.0 13108:1.0 13291:1.0 15368:1.0 16818:1.0 18886:1.0 
1.0 570:1.0 10681:1.0 
1.0 37:1.0 2541:1.0 9898:1.0 
1.0 1032:1.0 2244:1.0 2266:1.0 4079:1.0 15803:1.0 16651:1.0 19500:1.0 
1.0 1000:1.0 2722:1.0 8093:1.0 10928:1.0 
1.0 2745:1.0 5254:1.0 11243:1.0 
0.4434987976768485 8588:1.0 12568:1.0 
1.0 
1.0 
1.0 125:1.0 666:1.0 3531:1.0 6331:1.0 8840:1.0 9601:1.0 12230:1.0 14469:1.0 14541:1.0 15947:1.0 17667:1.0 19846:1.0 20526:1.0 
1.0 9796:1.0 10540:1.0 10983:1.0 13856:1.0 20610:1.0 
0.9036098930013964 8196:1.0 8370:1.0 11916:1.0 20539:1.0 
0.5719744651997017 4929:1.0 7080:1.0 7390:1.0 8245:1.0 8245:1.0 8389:1.0 11812:1.0 13291:1.0 13435:1.0 16978:1.0 19395:1.0 
1.0 1414:1.0 3411:1.0 5484:1.0 10458:1.0 16709:1.0 16816:1.0 
1.0 3411:1.0 16709:1.0 
1.0 12402:1.0 
0.37035250787627677 570:1.0 3239:1.0 3411:1.0 3894:1.0 5122:1.0 15020:1.0 15692:1.0 19380:1.0 
0.3483955490655051 1411:1.0 14114:1.0 14468:1.0 
1.0 37:1.0 1502:1.0 2043:1.0 3411:1.0 4299:1.0 5840:1.0 17277:1.0 
0.9474396138479683 1029:1.0 1029:1.0 2385:1.0 2386:1.0 6265:1.0 17667:1.0 19063:1.0 
0.2312258495085068 2447:1.0 3411:1.0 5045:1.0 7941:1.0 7943:1.0 12568:1.0 14973:1.0 15941:1.0 17454:1.0 20941:1.0 
0.6739660958647545 4369:1.0 5939:1.0 8160:1.0 8820:1.0 12107:1.0 
0.24885243311524283 605:1.0 2291:1.0 3637:1.0 4969:1.0 17475:1.0 18793:1.0 
1.0 19583:1.0 
0.5703749076982085 4203:1.0 8984:1.0 10942:1.0 13203:1.0 13628:1.0 17217:1.0 
0.570809887193944 3671:1.0 5254:1.0 13337:1.0 13933:1.0 14820:1.0 14923:1.0 19537:1.0 20569:1.0 
1.0 
1.0 942:1.0 11279:1.0 13395:1.0 17475:1.0 
1.0 2287:1.0 3833:1.0 16709:1.0 17043:1.0 18453:1.0 18690:1.0 19578:1.0 
1.0 125:1.0 13707:1.0 14148:1.0 
1.0 442:1.0 16504:1.0 
1.0 442:1.0 2698:1.0 4969:1.0 13175:1.0 14011:1.0 17642:1.0 17818:1.0 
1.0 8196:1.0 10498:1.0 13291:1.0 15038:1.0 19304:1.0 
0.36365494678381516 114:1.0 1414:1.0 2058:1.0 3831:1.0 9087:1.0 
1.0 11334:1.0 
0.15318677406116002 1000:1.0 1000:1.0 1102:1.0 2124:1.0 3411:1.0 5182:1.0 6970:1.0 6970:1.0 8983:1.0 10458:1.0 11419:1.0 17662:1.0 17662:1.0 18421:1.0 
1.0 14844:1.0 
1.0 570:1.0 2698:1.0 5934:1.0 9835:1.0 19380:1.0 19380:1.0 
0.9870323364101294 3076:1.0 4969:1.0 5712:1.0 5897:1.0 10619:1.0 10842:1.0 10983:1.0 13203:1.0 14557:1.0 17277:1.0 18123:1.0 18146:1.0 19034:1.0 
0.07123818939565028 4215:1.0 7266:1.0 10338:1.0 16284:1.0 
1.0 3364:1.0 3774:1.0 6684:1.0 7524:1.0 8873:1.0 9570:1.0 14469:1.0 15432:1.0 20526:1.0 20832:1.0 
0.8239193257871954 570:1.0 2585:1.0 3521:1.0 6722:1.0 10491:1.0 19415:1.0 19888:1.0 20113:1.0 
0.41468232703518726 1142:1.0 2266:1.0 2266:1.0 2447:1.0 3665:1.0 4108:1.0 4108:1.0 5800:1.0 10617:1.0 12375:1.0 14541:1.0 
0.013153277320816151 3411:1.0 5977:1.0 7543:1.0 11865:1.0 15692:1.0 
0.08485939096377071 2266:1.0 6255:1.0 6893:1.0 8070:1.0 9570:1.0 13435:1.0 14469:1.0 19294:1.0 20526:1.0 20856:1.0 
0.131193762191238 18291:1.0 
0.14255323013802987 2126:1.0 2182:1.0 7150:1.0 7811:1.0 7852:1.0 8916:1.0 10380:1.0 10495:1.0 10557:1.0 10633:1.0 11745:1.0 
1.0 6175:1.0 13632:1.0 19217:1.0 
0.218747366618943 6879:1.0 12039:1.0 14290:1.0 14469:1.0 18528:1.0 20314:1.0 
1.0 2521:1.0 12616:1.0 13242:1.0 14491:1.0 17023:1.0 19521:1.0 
1.0 2085:1.0 5444:1.0 6240:1.0 13906:1.0 18577:1.0 19501:1.0 
0.10807404921471493 2970:1.0 6183:1.0 
0.8491312057089085 5032:1.0 6255:1.0 6519:1.0 11195:1.0 12535:1.0 18856:1.0 20467:1.0 
0.338505101984242 859:1.0 3411:1.0 5373:1.0 6564:1.0 7543:1.0 11666:1.0 16307:1.0 17047:1.0 18011:1.0 19632:1.0 
1.0 1165:1.0 4683:1.0 12403:1.0 12568:1.0 19304:1.0 20526:1.0 
1.0 2131:1.0 3595:1.0 8093:1.0 19881:1.0 20338:1.0 
1.0 775:1.0 2598:1.0 3166:1.0 5783:1.0 6722:1.0 8093:1.0 8646:1.0 12276:1.0 12548:1.0 17347:1.0 18137:1.0 
1.0 6517:1.0 10422:1.0 13291:1.0 20526:1.0 
0.6667023457452071 2927:1.0 3315:1.0 9972:1.0 10742:1.0 14236:1.0 15325:1.0 16093:1.0 
0.6030414417803606 2598:1.0 6352:1.0 9629:1.0 15894:1.0 16964:1.0 19380:1.0 
1.0 2148:1.0 3631:1.0 6517:1.0 17347:1.0 20942:1.0 21055:1.0 
1.0 570:1.0 1895:1.0 2107:1.0 2695:1.0 3443:1.0 12548:1.0 13217:1.0 19493:1.0 
