svm_type c_svc
kernel_type linear
nr_class 2
total_sv 80
rho 0.11373931512718205
label 1 -1
nr_sv 40 40
SV
0.18035652789424642 7:1.0 33:1.0 113:1.0 141:1.0 175:1.0 209:1.0 329:1.0 354:1.0 
0.7565183563623659 223:1.0 228:1.0 
0.20642681364113544 47:1.0 114:1.0 122:1.0 136:1.0 207:1.0 232:1.0 278:1.0 
0.1415192238610661 19:1.0 50:1.0 147:1.0 179:1.0 188:1.0 248:1.0 265:1.0 310:1.0 333:1.0 356:1.0 
1.0 170:1.0 
0.1802615613977081 21:1.0 125:1.0 148:1.0 179:1.0 246:1.0 255:1.0 356:1.0 
0.1997880820409999 91:1.0 294:1.0 295:1.0 317:1.0 337:1.0 
0.21805215566446914 151:1.0 160:1.0 178:1.0 191:1.0 228:1.0 267:1.0 289:1.0 374:1.0 
0.14093095005221537 27:1.0 67:1.0 103:1.0 135:1.0 203:1.0 303:1.0 326:1.0 
0.15914998959870985 2:1.0 39:1.0 192:1.0 269:1.0 277:1.0 347:1.0 373:1.0 
0.15185332322936032 24:1.0 89:1.0 92:1.0 102:1.0 176:1.0 183:1.0 211:1.0 221:1.0 274:1.0 283:1.0 286:1.0 339:1.0 342:1.0 
0.13465681409924796 4:1.0 151:1.0 228:1.0 316:1.0 348:1.0 
0.27841031199525457 53:1.0 222:1.0 249:1.0 280:1.0 
0.2810025969458027 16:1.0 29:1.0 73:1.0 130:1.0 198:1.0 
0.15686317622302834 107:1.0 119:1.0 153:1.0 177:1.0 264:1.0 275:1.0 297:1.0 335:1.0 356:1.0 357:1.0 
0.3280554773134562 25:1.0 48:1.0 138:1.0 
0.07647364213653535 11:1.0 38:1.0 58:1.0 106:1.0 115:1.0 116:1.0 143:1.0 179:1.0 258:1.0 258:1.0 282:1.0 318:1.0 318:1.0 327:1.0 343:1.0 
0.43441402645918015 26:1.0 244:1.0 
0.06820417505318226 3:1.0 52:1.0 64:1.0 78:1.0 149:1.0 161:1.0 172:1.0 204:1.0 234:1.0 278:1.0 
0.0972606556899186 76:1.0 93:1.0 135:1.0 166:1.0 194:1.0 227:1.0 254:1.0 341:1.0 372:1.0 376:1.0 
0.2783555427184087 168:1.0 201:1.0 250:1.0 302:1.0 
0.24462270710682 26:1.0 101:1.0 238:1.0 321:1.0 
0.3468136460582072 45:1.0 137:1.0 196:1.0 375:1.0 
0.37120095661072305 12:1.0 87:1.0 288:1.0 
0.12959164759053993 25:1.0 36:1.0 71:1.0 152:1.0 164:1.0 256:1.0 365:1.0 
0.23483445652770168 40:1.0 61:1.0 79:1.0 109:1.0 111:1.0 254:1.0 
0.22272129908218144 55:1.0 117:1.0 145:1.0 304:1.0 366:1.0 
1.0 195:1.0 
0.11496994859643003 14:1.0 69:1.0 184:1.0 276:1.0 294:1.0 300:1.0 313:1.0 342:1.0 
0.12278706718845138 81:1.0 85:1.0 97:1.0 278:1.0 319:1.0 368:1.0 
0.36524960653084837 102:1.0 155:1.0 178:1.0 349:1.0 
0.17150524128290962 49:1.0 92:1.0 101:1.0 134:1.0 220:1.0 253:1.0 283:1.0 326:1.0 
0.08228059657347249 50:1.0 56:1.0 128:1.0 211:1.0 247:1.0 253:1.0 298:1.0 307:1.0 330:1.0 
0.22281259035539228 8:1.0 18:1.0 104:1.0 139:1.0 311:1.0 
0.556683254276893 324:1.0 371:1.0 
0.12377761421999617 9:1.0 32:1.0 57:1.0 59:1.0 62:1.0 98:1.0 162:1.0 260:1.0 359:1.0 
0.19178246354047268 10:1.0 40:1.0 95:1.0 241:1.0 264:1.0 284:1.0 292:1.0 299:1.0 308:1.0 
0.27834243567751193 42:1.0 70:1.0 72:1.0 80:1.0 
0.10250173189273633 6:1.0 135:1.0 158:1.0 257:1.0 278:1.0 355:1.0 
0.3750110134093297 137:1.0 156:1.0 174:1.0 224:1.0 369:1.0 
-0.050370710725468525 66:1.0 131:1.0 202:1.0 231:1.0 274:1.0 306:1.0 323:1.0 358:1.0 364:1.0 
-0.10746995674265054 13:1.0 123:1.0 169:1.0 178:1.0 213:1.0 236:1.0 351:1.0 360:1.0 
-0.21944347994611646 20:1.0 84:1.0 284:1.0 328:1.0 
-0.08451339287402299 30:1.0 30:1.0 68:1.0 171:1.0 242:1.0 
-0.8866906512475474 240:1.0 
-0.025523387248281935 65:1.0 68:1.0 178:1.0 189:1.0 189:1.0 193:1.0 237:1.0 291:1.0 301:1.0 361:1.0 
-0.8866302572899524 235:1.0 
-0.8867191585567357 121:1.0 
-0.14767454192695365 112:1.0 259:1.0 273:1.0 293:1.0 322:1.0 
-0.44322442005814966 243:1.0 245:1.0 
-0.11196654262219588 5:1.0 92:1.0 110:1.0 281:1.0 296:1.0 320:1.0 
-0.2731845334693357 86:1.0 122:1.0 133:1.0 140:1.0 
-0.1548902729012856 22:1.0 108:1.0 179:1.0 219:1.0 229:1.0 239:1.0 345:1.0 
-0.14950290364766908 92:1.0 262:1.0 297:1.0 
-0.09119167875040052 15:1.0 23:1.0 50:1.0 54:1.0 92:1.0 120:1.0 180:1.0 208:1.0 309:1.0 334:1.0 352:1.0 
-0.2060021239625937 27:1.0 28:1.0 68:1.0 190:1.0 205:1.0 214:1.0 228:1.0 
-0.1772331916929719 77:1.0 181:1.0 215:1.0 215:1.0 230:1.0 
-1.0 286:1.0 
-0.13670077003468314 19:1.0 60:1.0 93:1.0 94:1.0 178:1.0 210:1.0 279:1.0 314:1.0 355:1.0 
-0.2953542806155045 17:1.0 37:1.0 370:1.0 
-0.5522841744631429 191:1.0 251:1.0 
-0.3198628883944322 43:1.0 137:1.0 199:1.0 367:1.0 
-0.20269736484717527 159:1.0 200:1.0 290:1.0 338:1.0 
-0.1687305982706366 92:1.0 99:1.0 174:1.0 364:1.0 
-0.31379059560474526 207:1.0 212:1.0 346:1.0 
-0.19408801544117546 218:1.0 218:1.0 237:1.0 242:1.0 
-0.09793037767759202 46:1.0 74:1.0 178:1.0 261:1.0 340:1.0 353:1.0 
-0.27291165027798897 83:1.0 197:1.0 217:1.0 233:1.0 356:1.0 
-0.14769918410906388 154:1.0 157:1.0 165:1.0 225:1.0 272:1.0 331:1.0 
-0.12845255306655093 5:1.0 126:1.0 132:1.0 137:1.0 144:1.0 187:1.0 209:1.0 266:1.0 332:1.0 
-0.546270039512995 34:1.0 40:1.0 228:1.0 297:1.0 
-0.21583979782706994 29:1.0 142:1.0 174:1.0 263:1.0 364:1.0 
-0.12118685377756856 31:1.0 51:1.0 101:1.0 124:1.0 152:1.0 182:1.0 188:1.0 188:1.0 252:1.0 270:1.0 342:1.0 362:1.0 
-0.03639301804567313 21:1.0 88:1.0 96:1.0 118:1.0 185:1.0 206:1.0 206:1.0 286:1.0 287:1.0 342:1.0 
-0.34927698687834835 101:1.0 178:1.0 305:1.0 363:1.0 
-0.2628753009172423 74:1.0 146:1.0 150:1.0 
-0.200343660770268 33:1.0 129:1.0 137:1.0 179:1.0 216:1.0 284:1.0 306:1.0 376:1.0 
-0.14768065326321103 1:1.0 105:1.0 173:1.0 259:1.0 312:1.0 
-0.07534074887194528 73:1.0 174:1.0 200:1.0 271:1.0 336:1.0 346:1.0 346:1.0 346:1.0 
-0.03810096256756401 40:1.0 68:1.0 167:1.0 207:1.0 268:1.0 326:1.0 346:1.0 
